digraph Tree {
0 [label="Business Analysis <= 0.5000\ngini = 0.789259763245\nsamples = 1209", shape="box"] ;
1 [label="Machine Learning <= 0.5000\ngini = 0.771510700238\nsamples = 991", shape="box"] ;
0 -> 1 ;
2 [label="Software Engineering <= 0.5000\ngini = 0.749328552982\nsamples = 689", shape="box"] ;
1 -> 2 ;
3 [label="SAS <= 0.5000\ngini = 0.772625420977\nsamples = 546", shape="box"] ;
2 -> 3 ;
4 [label="Linux <= 0.5000\ngini = 0.785037807183\nsamples = 460", shape="box"] ;
3 -> 4 ;
5 [label="Statistics <= 0.5000\ngini = 0.791586789294\nsamples = 406", shape="box"] ;
4 -> 5 ;
6 [label="MySQL <= 0.5000\ngini = 0.781027725359\nsamples = 332", shape="box"] ;
5 -> 6 ;
7 [label="bc_1_computer science <= 0.5000\ngini = 0.784044559449\nsamples = 302", shape="box"] ;
6 -> 7 ;
8 [label="Java <= 0.5000\ngini = 0.782210870859\nsamples = 284", shape="box"] ;
7 -> 8 ;
9 [label="mas_1_statistics <= 0.5000\ngini = 0.770196540393\nsamples = 254", shape="box"] ;
8 -> 9 ;
10 [label="C++ <= 0.5000\ngini = 0.770952937391\nsamples = 243", shape="box"] ;
9 -> 10 ;
11 [label="Applied Mathematics <= 0.5000\ngini = 0.763562722949\nsamples = 232", shape="box"] ;
10 -> 11 ;
12 [label="Distributed Systems <= 0.5000\ngini = 0.757890202835\nsamples = 226", shape="box"] ;
11 -> 12 ;
13 [label="Big Data <= 0.5000\ngini = 0.75326058025\nsamples = 221", shape="box"] ;
12 -> 13 ;
14 [label="Requirements Gathering <= 0.5000\ngini = 0.745839670259\nsamples = 213", shape="box"] ;
13 -> 14 ;
15 [label="Software Development <= 0.5000\ngini = 0.755094194541\nsamples = 204", shape="box"] ;
14 -> 15 ;
16 [label="SDLC <= 0.5000\ngini = 0.74540333723\nsamples = 194", shape="box"] ;
15 -> 16 ;
17 [label="Requirements Analysis <= 0.5000\ngini = 0.741939058172\nsamples = 190", shape="box"] ;
16 -> 17 ;
18 [label="Python <= 0.5000\ngini = 0.746675916291\nsamples = 186", shape="box"] ;
17 -> 18 ;
19 [label="SPSS <= 0.5000\ngini = 0.737283950617\nsamples = 180", shape="box"] ;
18 -> 19 ;
20 [label="mas_1_computer science <= 0.5000\ngini = 0.738165916563\nsamples = 177", shape="box"] ;
19 -> 20 ;
21 [label="SQL <= 0.5000\ngini = 0.732791650152\nsamples = 174", shape="box"] ;
20 -> 21 ;
22 [label="Data Mining <= 0.5000\ngini = 0.731974288338\nsamples = 165", shape="box"] ;
21 -> 22 ;
23 [label="phd_1_mathematics <= 0.5000\ngini = 0.726171875\nsamples = 160", shape="box"] ;
22 -> 23 ;
24 [label="Perl <= 0.5000\ngini = 0.722706803521\nsamples = 157", shape="box"] ;
23 -> 24 ;
25 [label="Mathematics <= 0.5000\ngini = 0.718168574402\nsamples = 155", shape="box"] ;
24 -> 25 ;
26 [label="Vendor Management <= 0.5000\ngini = 0.715972339349\nsamples = 154", shape="box"] ;
25 -> 26 ;
27 [label="R <= 0.5000\ngini = 0.719009695291\nsamples = 152", shape="box"] ;
26 -> 27 ;
28 [label="Project Management <= 0.5000\ngini = 0.716888888889\nsamples = 150", shape="box"] ;
27 -> 28 ;
29 [label="Data Analysis <= 0.5000\ngini = 0.728881835938\nsamples = 128", shape="box"] ;
28 -> 29 ;
30 [label="Predictive Analytics <= 0.5000\ngini = 0.720570749108\nsamples = 116", shape="box"] ;
29 -> 30 ;
31 [label="Integration <= 0.5000\ngini = 0.721512287335\nsamples = 115", shape="box"] ;
30 -> 31 ;
32 [label="gini = 0.7258\nsamples = 112\nvalue = [ 11.  10.  37.  41.  13.]", shape="box"] ;
31 -> 32 ;
33 [label="gini = 0.4444\nsamples = 3\nvalue = [ 0.  0.  1.  2.  0.]", shape="box"] ;
31 -> 33 ;
34 [label="gini = 0.0000\nsamples = 1\nvalue = [ 0.  0.  1.  0.  0.]", shape="box"] ;
30 -> 34 ;
35 [label="gini = 0.7222\nsamples = 12\nvalue = [ 1.  3.  1.  5.  2.]", shape="box"] ;
29 -> 35 ;
36 [label="Data Analysis <= 0.5000\ngini = 0.615702479339\nsamples = 22", shape="box"] ;
28 -> 36 ;
37 [label="gini = 0.6200\nsamples = 20\nvalue = [  1.   1.   5.  11.   2.]", shape="box"] ;
36 -> 37 ;
38 [label="gini = 0.5000\nsamples = 2\nvalue = [ 0.  0.  1.  1.  0.]", shape="box"] ;
36 -> 38 ;
39 [label="Data Science <= 0.5000\ngini = 0.5\nsamples = 2", shape="box"] ;
27 -> 39 ;
40 [label="gini = 0.0000\nsamples = 1\nvalue = [ 0.  1.  0.  0.  0.]", shape="box"] ;
39 -> 40 ;
41 [label="gini = 0.0000\nsamples = 1\nvalue = [ 0.  0.  1.  0.  0.]", shape="box"] ;
39 -> 41 ;
42 [label="gini = 0.0000\nsamples = 2\nvalue = [ 0.  0.  0.  2.  0.]", shape="box"] ;
26 -> 42 ;
43 [label="gini = 0.0000\nsamples = 1\nvalue = [ 0.  0.  0.  0.  1.]", shape="box"] ;
25 -> 43 ;
44 [label="Data Analysis <= 0.5000\ngini = 0.5\nsamples = 2", shape="box"] ;
24 -> 44 ;
45 [label="gini = 0.0000\nsamples = 1\nvalue = [ 1.  0.  0.  0.  0.]", shape="box"] ;
44 -> 45 ;
46 [label="gini = 0.0000\nsamples = 1\nvalue = [ 0.  0.  0.  0.  1.]", shape="box"] ;
44 -> 46 ;
47 [label="gini = 0.4444\nsamples = 3\nvalue = [ 0.  0.  1.  0.  2.]", shape="box"] ;
23 -> 47 ;
48 [label="Statistical Modeling <= 0.5000\ngini = 0.64\nsamples = 5", shape="box"] ;
22 -> 48 ;
49 [label="Object Oriented Design <= 0.5000\ngini = 0.444444444444\nsamples = 3", shape="box"] ;
48 -> 49 ;
50 [label="gini = 0.5000\nsamples = 2\nvalue = [ 1.  0.  1.  0.  0.]", shape="box"] ;
49 -> 50 ;
51 [label="gini = 0.0000\nsamples = 1\nvalue = [ 1.  0.  0.  0.  0.]", shape="box"] ;
49 -> 51 ;
52 [label="gini = 0.5000\nsamples = 2\nvalue = [ 0.  1.  1.  0.  0.]", shape="box"] ;
48 -> 52 ;
53 [label="Project Management <= 0.5000\ngini = 0.567901234568\nsamples = 9", shape="box"] ;
21 -> 53 ;
54 [label="R <= 0.5000\ngini = 0.612244897959\nsamples = 7", shape="box"] ;
53 -> 54 ;
55 [label="gini = 0.6400\nsamples = 5\nvalue = [ 2.  0.  0.  2.  1.]", shape="box"] ;
54 -> 55 ;
56 [label="gini = 0.5000\nsamples = 2\nvalue = [ 1.  0.  0.  1.  0.]", shape="box"] ;
54 -> 56 ;
57 [label="gini = 0.0000\nsamples = 2\nvalue = [ 0.  0.  0.  2.  0.]", shape="box"] ;
53 -> 57 ;
58 [label="Data Analysis <= 0.5000\ngini = 0.444444444444\nsamples = 3", shape="box"] ;
20 -> 58 ;
59 [label="gini = 0.0000\nsamples = 2\nvalue = [ 2.  0.  0.  0.  0.]", shape="box"] ;
58 -> 59 ;
60 [label="gini = 0.0000\nsamples = 1\nvalue = [ 0.  1.  0.  0.  0.]", shape="box"] ;
58 -> 60 ;
61 [label="gini = 0.0000\nsamples = 3\nvalue = [ 0.  0.  3.  0.  0.]", shape="box"] ;
19 -> 61 ;
62 [label="SQL <= 0.5000\ngini = 0.666666666667\nsamples = 6", shape="box"] ;
18 -> 62 ;
63 [label="Data Science <= 0.5000\ngini = 0.64\nsamples = 5", shape="box"] ;
62 -> 63 ;
64 [label="SPSS <= 0.5000\ngini = 0.5\nsamples = 4", shape="box"] ;
63 -> 64 ;
65 [label="Matlab <= 0.5000\ngini = 0.444444444444\nsamples = 3", shape="box"] ;
64 -> 65 ;
66 [label="R <= 0.5000\ngini = 0.5\nsamples = 2", shape="box"] ;
65 -> 66 ;
67 [label="gini = 0.0000\nsamples = 1\nvalue = [ 0.  0.  0.  0.  1.]", shape="box"] ;
66 -> 67 ;
68 [label="gini = 0.0000\nsamples = 1\nvalue = [ 1.  0.  0.  0.  0.]", shape="box"] ;
66 -> 68 ;
69 [label="gini = 0.0000\nsamples = 1\nvalue = [ 1.  0.  0.  0.  0.]", shape="box"] ;
65 -> 69 ;
70 [label="gini = 0.0000\nsamples = 1\nvalue = [ 0.  0.  0.  0.  1.]", shape="box"] ;
64 -> 70 ;
71 [label="gini = 0.0000\nsamples = 1\nvalue = [ 0.  1.  0.  0.  0.]", shape="box"] ;
63 -> 71 ;
72 [label="gini = 0.0000\nsamples = 1\nvalue = [ 0.  1.  0.  0.  0.]", shape="box"] ;
62 -> 72 ;
73 [label="gini = 0.0000\nsamples = 4\nvalue = [ 0.  0.  0.  4.  0.]", shape="box"] ;
17 -> 73 ;
74 [label="Project Management <= 0.5000\ngini = 0.375\nsamples = 4", shape="box"] ;
16 -> 74 ;
75 [label="gini = 0.0000\nsamples = 3\nvalue = [ 0.  3.  0.  0.  0.]", shape="box"] ;
74 -> 75 ;
76 [label="gini = 0.0000\nsamples = 1\nvalue = [ 0.  0.  0.  1.  0.]", shape="box"] ;
74 -> 76 ;
77 [label="Perl <= 0.5000\ngini = 0.54\nsamples = 10", shape="box"] ;
15 -> 77 ;
78 [label="Mathematics <= 0.5000\ngini = 0.612244897959\nsamples = 7", shape="box"] ;
77 -> 78 ;
79 [label="mas_1_computer science <= 0.5000\ngini = 0.611111111111\nsamples = 6", shape="box"] ;
78 -> 79 ;
80 [label="Project Management <= 0.5000\ngini = 0.56\nsamples = 5", shape="box"] ;
79 -> 80 ;
81 [label="gini = 0.4444\nsamples = 3\nvalue = [ 2.  0.  0.  1.  0.]", shape="box"] ;
80 -> 81 ;
82 [label="SQL <= 0.5000\ngini = 0.5\nsamples = 2", shape="box"] ;
80 -> 82 ;
83 [label="gini = 0.0000\nsamples = 1\nvalue = [ 0.  0.  0.  0.  1.]", shape="box"] ;
82 -> 83 ;
84 [label="gini = 0.0000\nsamples = 1\nvalue = [ 1.  0.  0.  0.  0.]", shape="box"] ;
82 -> 84 ;
85 [label="gini = 0.0000\nsamples = 1\nvalue = [ 0.  0.  0.  0.  1.]", shape="box"] ;
79 -> 85 ;
86 [label="gini = 0.0000\nsamples = 1\nvalue = [ 0.  0.  0.  0.  1.]", shape="box"] ;
78 -> 86 ;
87 [label="gini = 0.0000\nsamples = 3\nvalue = [ 3.  0.  0.  0.  0.]", shape="box"] ;
77 -> 87 ;
88 [label="SDLC <= 0.5000\ngini = 0.197530864198\nsamples = 9", shape="box"] ;
14 -> 88 ;
89 [label="gini = 0.0000\nsamples = 4\nvalue = [ 0.  0.  0.  4.  0.]", shape="box"] ;
88 -> 89 ;
90 [label="Project Management <= 0.5000\ngini = 0.32\nsamples = 5", shape="box"] ;
88 -> 90 ;
91 [label="gini = 0.4444\nsamples = 3\nvalue = [ 0.  0.  1.  2.  0.]", shape="box"] ;
90 -> 91 ;
92 [label="gini = 0.0000\nsamples = 2\nvalue = [ 0.  0.  0.  2.  0.]", shape="box"] ;
90 -> 92 ;
93 [label="Data Mining <= 0.5000\ngini = 0.53125\nsamples = 8", shape="box"] ;
13 -> 93 ;
94 [label="Software Development <= 0.5000\ngini = 0.277777777778\nsamples = 6", shape="box"] ;
93 -> 94 ;
95 [label="gini = 0.0000\nsamples = 5\nvalue = [ 0.  5.  0.  0.  0.]", shape="box"] ;
94 -> 95 ;
96 [label="gini = 0.0000\nsamples = 1\nvalue = [ 0.  0.  0.  0.  1.]", shape="box"] ;
94 -> 96 ;
97 [label="gini = 0.0000\nsamples = 2\nvalue = [ 0.  0.  2.  0.  0.]", shape="box"] ;
93 -> 97 ;
98 [label="gini = 0.0000\nsamples = 5\nvalue = [ 5.  0.  0.  0.  0.]", shape="box"] ;
12 -> 98 ;
99 [label="Big Data <= 0.5000\ngini = 0.277777777778\nsamples = 6", shape="box"] ;
11 -> 99 ;
100 [label="gini = 0.0000\nsamples = 5\nvalue = [ 0.  0.  0.  0.  5.]", shape="box"] ;
99 -> 100 ;
101 [label="gini = 0.0000\nsamples = 1\nvalue = [ 0.  1.  0.  0.  0.]", shape="box"] ;
99 -> 101 ;
102 [label="Algorithms <= 0.5000\ngini = 0.462809917355\nsamples = 11", shape="box"] ;
10 -> 102 ;
103 [label="Project Management <= 0.5000\ngini = 0.345679012346\nsamples = 9", shape="box"] ;
102 -> 103 ;
104 [label="C <= 0.5000\ngini = 0.21875\nsamples = 8", shape="box"] ;
103 -> 104 ;
105 [label="gini = 0.0000\nsamples = 5\nvalue = [ 0.  0.  0.  0.  5.]", shape="box"] ;
104 -> 105 ;
106 [label="Programming <= 0.5000\ngini = 0.444444444444\nsamples = 3", shape="box"] ;
104 -> 106 ;
107 [label="gini = 0.5000\nsamples = 2\nvalue = [ 1.  0.  0.  0.  1.]", shape="box"] ;
106 -> 107 ;
108 [label="gini = 0.0000\nsamples = 1\nvalue = [ 0.  0.  0.  0.  1.]", shape="box"] ;
106 -> 108 ;
109 [label="gini = 0.0000\nsamples = 1\nvalue = [ 1.  0.  0.  0.  0.]", shape="box"] ;
103 -> 109 ;
110 [label="gini = 0.0000\nsamples = 2\nvalue = [ 2.  0.  0.  0.  0.]", shape="box"] ;
102 -> 110 ;
111 [label="Programming <= 0.5000\ngini = 0.165289256198\nsamples = 11", shape="box"] ;
9 -> 111 ;
112 [label="gini = 0.0000\nsamples = 10\nvalue = [  0.   0.  10.   0.   0.]", shape="box"] ;
111 -> 112 ;
113 [label="gini = 0.0000\nsamples = 1\nvalue = [ 0.  0.  0.  0.  1.]", shape="box"] ;
111 -> 113 ;
114 [label="Data Analysis <= 0.5000\ngini = 0.604444444444\nsamples = 30", shape="box"] ;
8 -> 114 ;
115 [label="Mathematics <= 0.5000\ngini = 0.497041420118\nsamples = 26", shape="box"] ;
114 -> 115 ;
116 [label="Hadoop <= 0.5000\ngini = 0.451388888889\nsamples = 24", shape="box"] ;
115 -> 116 ;
117 [label="Project Management <= 0.5000\ngini = 0.394557823129\nsamples = 21", shape="box"] ;
116 -> 117 ;
118 [label="Matlab <= 0.5000\ngini = 0.345\nsamples = 20", shape="box"] ;
117 -> 118 ;
119 [label="R <= 0.5000\ngini = 0.214532871972\nsamples = 17", shape="box"] ;
118 -> 119 ;
120 [label="SQL <= 0.5000\ngini = 0.124444444444\nsamples = 15", shape="box"] ;
119 -> 120 ;
121 [label="gini = 0.0000\nsamples = 9\nvalue = [ 9.  0.  0.  0.  0.]", shape="box"] ;
120 -> 121 ;
122 [label="Requirements Analysis <= 0.5000\ngini = 0.277777777778\nsamples = 6", shape="box"] ;
120 -> 122 ;
123 [label="Software Development <= 0.5000\ngini = 0.375\nsamples = 4", shape="box"] ;
122 -> 123 ;
124 [label="Distributed Systems <= 0.5000\ngini = 0.444444444444\nsamples = 3", shape="box"] ;
123 -> 124 ;
125 [label="gini = 0.5000\nsamples = 2\nvalue = [ 1.  0.  0.  1.  0.]", shape="box"] ;
124 -> 125 ;
126 [label="gini = 0.0000\nsamples = 1\nvalue = [ 1.  0.  0.  0.  0.]", shape="box"] ;
124 -> 126 ;
127 [label="gini = 0.0000\nsamples = 1\nvalue = [ 1.  0.  0.  0.  0.]", shape="box"] ;
123 -> 127 ;
128 [label="gini = 0.0000\nsamples = 2\nvalue = [ 2.  0.  0.  0.  0.]", shape="box"] ;
122 -> 128 ;
129 [label="Python <= 0.5000\ngini = 0.5\nsamples = 2", shape="box"] ;
119 -> 129 ;
130 [label="gini = 0.0000\nsamples = 1\nvalue = [ 0.  0.  0.  0.  1.]", shape="box"] ;
129 -> 130 ;
131 [label="gini = 0.0000\nsamples = 1\nvalue = [ 1.  0.  0.  0.  0.]", shape="box"] ;
129 -> 131 ;
132 [label="Programming <= 0.5000\ngini = 0.666666666667\nsamples = 3", shape="box"] ;
118 -> 132 ;
133 [label="Distributed Systems <= 0.5000\ngini = 0.5\nsamples = 2", shape="box"] ;
132 -> 133 ;
134 [label="gini = 0.0000\nsamples = 1\nvalue = [ 1.  0.  0.  0.  0.]", shape="box"] ;
133 -> 134 ;
135 [label="gini = 0.0000\nsamples = 1\nvalue = [ 0.  1.  0.  0.  0.]", shape="box"] ;
133 -> 135 ;
136 [label="gini = 0.0000\nsamples = 1\nvalue = [ 0.  0.  0.  0.  1.]", shape="box"] ;
132 -> 136 ;
137 [label="gini = 0.0000\nsamples = 1\nvalue = [ 0.  0.  0.  0.  1.]", shape="box"] ;
117 -> 137 ;
138 [label="mas_1_computer science <= 0.5000\ngini = 0.444444444444\nsamples = 3", shape="box"] ;
116 -> 138 ;
139 [label="gini = 0.0000\nsamples = 2\nvalue = [ 0.  0.  0.  0.  2.]", shape="box"] ;
138 -> 139 ;
140 [label="gini = 0.0000\nsamples = 1\nvalue = [ 1.  0.  0.  0.  0.]", shape="box"] ;
138 -> 140 ;
141 [label="gini = 0.0000\nsamples = 2\nvalue = [ 0.  0.  0.  0.  2.]", shape="box"] ;
115 -> 141 ;
142 [label="SQL <= 0.5000\ngini = 0.375\nsamples = 4", shape="box"] ;
114 -> 142 ;
143 [label="gini = 0.0000\nsamples = 1\nvalue = [ 0.  0.  1.  0.  0.]", shape="box"] ;
142 -> 143 ;
144 [label="gini = 0.0000\nsamples = 3\nvalue = [ 0.  3.  0.  0.  0.]", shape="box"] ;
142 -> 144 ;
145 [label="Data Analysis <= 0.5000\ngini = 0.376543209877\nsamples = 18", shape="box"] ;
7 -> 145 ;
146 [label="mas_1_computer science <= 0.5000\ngini = 0.311418685121\nsamples = 17", shape="box"] ;
145 -> 146 ;
147 [label="C++ <= 0.5000\ngini = 0.165289256198\nsamples = 11", shape="box"] ;
146 -> 147 ;
148 [label="Python <= 0.5000\ngini = 0.197530864198\nsamples = 9", shape="box"] ;
147 -> 148 ;
149 [label="gini = 0.2188\nsamples = 8\nvalue = [ 7.  0.  0.  1.  0.]", shape="box"] ;
148 -> 149 ;
150 [label="gini = 0.0000\nsamples = 1\nvalue = [ 1.  0.  0.  0.  0.]", shape="box"] ;
148 -> 150 ;
151 [label="gini = 0.0000\nsamples = 2\nvalue = [ 2.  0.  0.  0.  0.]", shape="box"] ;
147 -> 151 ;
152 [label="Python <= 0.5000\ngini = 0.5\nsamples = 6", shape="box"] ;
146 -> 152 ;
153 [label="Big Data <= 0.5000\ngini = 0.32\nsamples = 5", shape="box"] ;
152 -> 153 ;
154 [label="gini = 0.3750\nsamples = 4\nvalue = [ 3.  0.  0.  0.  1.]", shape="box"] ;
153 -> 154 ;
155 [label="gini = 0.0000\nsamples = 1\nvalue = [ 1.  0.  0.  0.  0.]", shape="box"] ;
153 -> 155 ;
156 [label="gini = 0.0000\nsamples = 1\nvalue = [ 0.  1.  0.  0.  0.]", shape="box"] ;
152 -> 156 ;
157 [label="gini = 0.0000\nsamples = 1\nvalue = [ 0.  1.  0.  0.  0.]", shape="box"] ;
145 -> 157 ;
158 [label="R <= 0.5000\ngini = 0.442222222222\nsamples = 30", shape="box"] ;
6 -> 158 ;
159 [label="Project Management <= 0.5000\ngini = 0.326474622771\nsamples = 27", shape="box"] ;
158 -> 159 ;
160 [label="Requirements Analysis <= 0.5000\ngini = 0.275147928994\nsamples = 26", shape="box"] ;
159 -> 160 ;
161 [label="C <= 0.5000\ngini = 0.2208\nsamples = 25", shape="box"] ;
160 -> 161 ;
162 [label="SQL <= 0.5000\ngini = 0.0997229916898\nsamples = 19", shape="box"] ;
161 -> 162 ;
163 [label="gini = 0.0000\nsamples = 13\nvalue = [ 13.   0.   0.   0.   0.]", shape="box"] ;
162 -> 163 ;
164 [label="Java <= 0.5000\ngini = 0.277777777778\nsamples = 6", shape="box"] ;
162 -> 164 ;
165 [label="gini = 0.0000\nsamples = 2\nvalue = [ 2.  0.  0.  0.  0.]", shape="box"] ;
164 -> 165 ;
166 [label="Perl <= 0.5000\ngini = 0.375\nsamples = 4", shape="box"] ;
164 -> 166 ;
167 [label="Software Development <= 0.5000\ngini = 0.444444444444\nsamples = 3", shape="box"] ;
166 -> 167 ;
168 [label="gini = 0.5000\nsamples = 2\nvalue = [ 1.  0.  0.  0.  1.]", shape="box"] ;
167 -> 168 ;
169 [label="gini = 0.0000\nsamples = 1\nvalue = [ 1.  0.  0.  0.  0.]", shape="box"] ;
167 -> 169 ;
170 [label="gini = 0.0000\nsamples = 1\nvalue = [ 1.  0.  0.  0.  0.]", shape="box"] ;
166 -> 170 ;
171 [label="C++ <= 0.5000\ngini = 0.5\nsamples = 6", shape="box"] ;
161 -> 171 ;
172 [label="Perl <= 0.5000\ngini = 0.5\nsamples = 2", shape="box"] ;
171 -> 172 ;
173 [label="gini = 0.0000\nsamples = 1\nvalue = [ 0.  0.  1.  0.  0.]", shape="box"] ;
172 -> 173 ;
174 [label="gini = 0.0000\nsamples = 1\nvalue = [ 0.  0.  0.  1.  0.]", shape="box"] ;
172 -> 174 ;
175 [label="gini = 0.0000\nsamples = 4\nvalue = [ 4.  0.  0.  0.  0.]", shape="box"] ;
171 -> 175 ;
176 [label="gini = 0.0000\nsamples = 1\nvalue = [ 0.  0.  0.  1.  0.]", shape="box"] ;
160 -> 176 ;
177 [label="gini = 0.0000\nsamples = 1\nvalue = [ 0.  1.  0.  0.  0.]", shape="box"] ;
159 -> 177 ;
178 [label="Matlab <= 0.5000\ngini = 0.444444444444\nsamples = 3", shape="box"] ;
158 -> 178 ;
179 [label="gini = 0.0000\nsamples = 2\nvalue = [ 0.  2.  0.  0.  0.]", shape="box"] ;
178 -> 179 ;
180 [label="gini = 0.0000\nsamples = 1\nvalue = [ 0.  0.  1.  0.  0.]", shape="box"] ;
178 -> 180 ;
181 [label="Python <= 0.5000\ngini = 0.659970781592\nsamples = 74", shape="box"] ;
5 -> 181 ;
182 [label="Mathematics <= 0.5000\ngini = 0.62548828125\nsamples = 64", shape="box"] ;
181 -> 182 ;
183 [label="Matlab <= 0.5000\ngini = 0.595231255386\nsamples = 59", shape="box"] ;
182 -> 183 ;
184 [label="Distributed Systems <= 0.5000\ngini = 0.5344\nsamples = 50", shape="box"] ;
183 -> 184 ;
185 [label="Big Data <= 0.5000\ngini = 0.510416666667\nsamples = 48", shape="box"] ;
184 -> 185 ;
186 [label="Data Analysis <= 0.5000\ngini = 0.470041322314\nsamples = 44", shape="box"] ;
185 -> 186 ;
187 [label="mas_1_statistics <= 0.5000\ngini = 0.124444444444\nsamples = 15", shape="box"] ;
186 -> 187 ;
188 [label="gini = 0.0000\nsamples = 12\nvalue = [  0.   0.  12.   0.   0.]", shape="box"] ;
187 -> 188 ;
189 [label="R <= 0.5000\ngini = 0.444444444444\nsamples = 3", shape="box"] ;
187 -> 189 ;
190 [label="gini = 0.5000\nsamples = 2\nvalue = [ 0.  1.  1.  0.  0.]", shape="box"] ;
189 -> 190 ;
191 [label="gini = 0.0000\nsamples = 1\nvalue = [ 0.  0.  1.  0.  0.]", shape="box"] ;
189 -> 191 ;
192 [label="Hadoop <= 0.5000\ngini = 0.592152199762\nsamples = 29", shape="box"] ;
186 -> 192 ;
193 [label="mas_1_statistics <= 0.5000\ngini = 0.573979591837\nsamples = 28", shape="box"] ;
192 -> 193 ;
194 [label="Statistical Modeling <= 0.5000\ngini = 0.551440329218\nsamples = 27", shape="box"] ;
193 -> 194 ;
195 [label="Project Management <= 0.5000\ngini = 0.59375\nsamples = 24", shape="box"] ;
194 -> 195 ;
196 [label="SQL <= 0.5000\ngini = 0.585\nsamples = 20", shape="box"] ;
195 -> 196 ;
197 [label="Software Development <= 0.5000\ngini = 0.574074074074\nsamples = 18", shape="box"] ;
196 -> 197 ;
198 [label="R <= 0.5000\ngini = 0.5546875\nsamples = 16", shape="box"] ;
197 -> 198 ;
199 [label="SPSS <= 0.5000\ngini = 0.429752066116\nsamples = 11", shape="box"] ;
198 -> 199 ;
200 [label="Programming <= 0.5000\ngini = 0.37037037037\nsamples = 9", shape="box"] ;
199 -> 200 ;
201 [label="gini = 0.4062\nsamples = 8\nvalue = [ 0.  0.  6.  1.  1.]", shape="box"] ;
200 -> 201 ;
202 [label="gini = 0.0000\nsamples = 1\nvalue = [ 0.  0.  1.  0.  0.]", shape="box"] ;
200 -> 202 ;
203 [label="gini = 0.5000\nsamples = 2\nvalue = [ 0.  0.  1.  0.  1.]", shape="box"] ;
199 -> 203 ;
204 [label="gini = 0.7200\nsamples = 5\nvalue = [ 0.  1.  2.  1.  1.]", shape="box"] ;
198 -> 204 ;
205 [label="Requirements Analysis <= 0.5000\ngini = 0.5\nsamples = 2", shape="box"] ;
197 -> 205 ;
206 [label="gini = 0.0000\nsamples = 1\nvalue = [ 0.  1.  0.  0.  0.]", shape="box"] ;
205 -> 206 ;
207 [label="gini = 0.0000\nsamples = 1\nvalue = [ 0.  0.  1.  0.  0.]", shape="box"] ;
205 -> 207 ;
208 [label="Requirements Analysis <= 0.5000\ngini = 0.5\nsamples = 2", shape="box"] ;
196 -> 208 ;
209 [label="gini = 0.0000\nsamples = 1\nvalue = [ 0.  0.  1.  0.  0.]", shape="box"] ;
208 -> 209 ;
210 [label="gini = 0.0000\nsamples = 1\nvalue = [ 0.  1.  0.  0.  0.]", shape="box"] ;
208 -> 210 ;
211 [label="R <= 0.5000\ngini = 0.5\nsamples = 4", shape="box"] ;
195 -> 211 ;
212 [label="gini = 0.0000\nsamples = 1\nvalue = [ 0.  0.  0.  0.  1.]", shape="box"] ;
211 -> 212 ;
213 [label="Algorithms <= 0.5000\ngini = 0.444444444444\nsamples = 3", shape="box"] ;
211 -> 213 ;
214 [label="SPSS <= 0.5000\ngini = 0.5\nsamples = 2", shape="box"] ;
213 -> 214 ;
215 [label="gini = 0.0000\nsamples = 1\nvalue = [ 0.  0.  0.  0.  1.]", shape="box"] ;
214 -> 215 ;
216 [label="gini = 0.0000\nsamples = 1\nvalue = [ 0.  0.  1.  0.  0.]", shape="box"] ;
214 -> 216 ;
217 [label="gini = 0.0000\nsamples = 1\nvalue = [ 0.  0.  1.  0.  0.]", shape="box"] ;
213 -> 217 ;
218 [label="gini = 0.0000\nsamples = 3\nvalue = [ 0.  0.  3.  0.  0.]", shape="box"] ;
194 -> 218 ;
219 [label="gini = 0.0000\nsamples = 1\nvalue = [ 0.  1.  0.  0.  0.]", shape="box"] ;
193 -> 219 ;
220 [label="gini = 0.0000\nsamples = 1\nvalue = [ 0.  1.  0.  0.  0.]", shape="box"] ;
192 -> 220 ;
221 [label="Predictive Analytics <= 0.5000\ngini = 0.625\nsamples = 4", shape="box"] ;
185 -> 221 ;
222 [label="gini = 0.0000\nsamples = 2\nvalue = [ 0.  2.  0.  0.  0.]", shape="box"] ;
221 -> 222 ;
223 [label="SQL <= 0.5000\ngini = 0.5\nsamples = 2", shape="box"] ;
221 -> 223 ;
224 [label="gini = 0.0000\nsamples = 1\nvalue = [ 0.  0.  0.  0.  1.]", shape="box"] ;
223 -> 224 ;
225 [label="gini = 0.0000\nsamples = 1\nvalue = [ 0.  0.  1.  0.  0.]", shape="box"] ;
223 -> 225 ;
226 [label="gini = 0.0000\nsamples = 2\nvalue = [ 0.  2.  0.  0.  0.]", shape="box"] ;
184 -> 226 ;
227 [label="Programming <= 0.5000\ngini = 0.691358024691\nsamples = 9", shape="box"] ;
183 -> 227 ;
228 [label="Data Analysis <= 0.5000\ngini = 0.611111111111\nsamples = 6", shape="box"] ;
227 -> 228 ;
229 [label="phd_1_mathematics <= 0.5000\ngini = 0.444444444444\nsamples = 3", shape="box"] ;
228 -> 229 ;
230 [label="gini = 0.0000\nsamples = 2\nvalue = [ 0.  0.  2.  0.  0.]", shape="box"] ;
229 -> 230 ;
231 [label="gini = 0.0000\nsamples = 1\nvalue = [ 0.  0.  0.  0.  1.]", shape="box"] ;
229 -> 231 ;
232 [label="Statistical Modeling <= 0.5000\ngini = 0.444444444444\nsamples = 3", shape="box"] ;
228 -> 232 ;
233 [label="gini = 0.0000\nsamples = 1\nvalue = [ 0.  0.  0.  0.  1.]", shape="box"] ;
232 -> 233 ;
234 [label="SPSS <= 0.5000\ngini = 0.5\nsamples = 2", shape="box"] ;
232 -> 234 ;
235 [label="gini = 0.0000\nsamples = 1\nvalue = [ 0.  0.  0.  1.  0.]", shape="box"] ;
234 -> 235 ;
236 [label="gini = 0.0000\nsamples = 1\nvalue = [ 0.  0.  0.  0.  1.]", shape="box"] ;
234 -> 236 ;
237 [label="Data Analysis <= 0.5000\ngini = 0.444444444444\nsamples = 3", shape="box"] ;
227 -> 237 ;
238 [label="R <= 0.5000\ngini = 0.5\nsamples = 2", shape="box"] ;
237 -> 238 ;
239 [label="gini = 0.0000\nsamples = 1\nvalue = [ 0.  1.  0.  0.  0.]", shape="box"] ;
238 -> 239 ;
240 [label="gini = 0.0000\nsamples = 1\nvalue = [ 0.  0.  0.  0.  1.]", shape="box"] ;
238 -> 240 ;
241 [label="gini = 0.0000\nsamples = 1\nvalue = [ 0.  1.  0.  0.  0.]", shape="box"] ;
237 -> 241 ;
242 [label="gini = 0.0000\nsamples = 5\nvalue = [ 0.  0.  0.  0.  5.]", shape="box"] ;
182 -> 242 ;
243 [label="C <= 0.5000\ngini = 0.18\nsamples = 10", shape="box"] ;
181 -> 243 ;
244 [label="gini = 0.0000\nsamples = 9\nvalue = [ 0.  9.  0.  0.  0.]", shape="box"] ;
243 -> 244 ;
245 [label="gini = 0.0000\nsamples = 1\nvalue = [ 0.  0.  0.  0.  1.]", shape="box"] ;
243 -> 245 ;
246 [label="Data Analysis <= 0.5000\ngini = 0.37585733882\nsamples = 54", shape="box"] ;
4 -> 246 ;
247 [label="Statistics <= 0.5000\ngini = 0.254060807997\nsamples = 49", shape="box"] ;
246 -> 247 ;
248 [label="phd_1_mathematics <= 0.5000\ngini = 0.223090277778\nsamples = 48", shape="box"] ;
247 -> 248 ;
249 [label="Mathematics <= 0.5000\ngini = 0.190131281123\nsamples = 47", shape="box"] ;
248 -> 249 ;
250 [label="Java <= 0.5000\ngini = 0.158790170132\nsamples = 46", shape="box"] ;
249 -> 250 ;
251 [label="gini = 0.0000\nsamples = 21\nvalue = [ 21.   0.   0.   0.   0.]", shape="box"] ;
250 -> 251 ;
252 [label="Programming <= 0.5000\ngini = 0.2688\nsamples = 25", shape="box"] ;
250 -> 252 ;
253 [label="Matlab <= 0.5000\ngini = 0.21875\nsamples = 24", shape="box"] ;
252 -> 253 ;
254 [label="Software Development <= 0.5000\ngini = 0.158790170132\nsamples = 23", shape="box"] ;
253 -> 254 ;
255 [label="gini = 0.0000\nsamples = 11\nvalue = [ 11.   0.   0.   0.   0.]", shape="box"] ;
254 -> 255 ;
256 [label="bc_1_computer science <= 0.5000\ngini = 0.277777777778\nsamples = 12", shape="box"] ;
254 -> 256 ;
257 [label="SQL <= 0.5000\ngini = 0.18\nsamples = 10", shape="box"] ;
256 -> 257 ;
258 [label="gini = 0.0000\nsamples = 7\nvalue = [ 7.  0.  0.  0.  0.]", shape="box"] ;
257 -> 258 ;
259 [label="Perl <= 0.5000\ngini = 0.444444444444\nsamples = 3", shape="box"] ;
257 -> 259 ;
260 [label="gini = 0.0000\nsamples = 2\nvalue = [ 2.  0.  0.  0.  0.]", shape="box"] ;
259 -> 260 ;
261 [label="gini = 0.0000\nsamples = 1\nvalue = [ 0.  0.  0.  0.  1.]", shape="box"] ;
259 -> 261 ;
262 [label="mas_1_computer science <= 0.5000\ngini = 0.5\nsamples = 2", shape="box"] ;
256 -> 262 ;
263 [label="gini = 0.0000\nsamples = 1\nvalue = [ 0.  0.  0.  0.  1.]", shape="box"] ;
262 -> 263 ;
264 [label="gini = 0.0000\nsamples = 1\nvalue = [ 1.  0.  0.  0.  0.]", shape="box"] ;
262 -> 264 ;
265 [label="gini = 0.0000\nsamples = 1\nvalue = [ 0.  0.  0.  0.  1.]", shape="box"] ;
253 -> 265 ;
266 [label="gini = 0.0000\nsamples = 1\nvalue = [ 0.  0.  0.  0.  1.]", shape="box"] ;
252 -> 266 ;
267 [label="gini = 0.0000\nsamples = 1\nvalue = [ 0.  0.  0.  0.  1.]", shape="box"] ;
249 -> 267 ;
268 [label="gini = 0.0000\nsamples = 1\nvalue = [ 0.  1.  0.  0.  0.]", shape="box"] ;
248 -> 268 ;
269 [label="gini = 0.0000\nsamples = 1\nvalue = [ 0.  0.  1.  0.  0.]", shape="box"] ;
247 -> 269 ;
270 [label="Matlab <= 0.5000\ngini = 0.56\nsamples = 5", shape="box"] ;
246 -> 270 ;
271 [label="Statistics <= 0.5000\ngini = 0.5\nsamples = 2", shape="box"] ;
270 -> 271 ;
272 [label="gini = 0.0000\nsamples = 1\nvalue = [ 0.  0.  0.  0.  1.]", shape="box"] ;
271 -> 272 ;
273 [label="gini = 0.0000\nsamples = 1\nvalue = [ 0.  0.  1.  0.  0.]", shape="box"] ;
271 -> 273 ;
274 [label="gini = 0.0000\nsamples = 3\nvalue = [ 0.  3.  0.  0.  0.]", shape="box"] ;
270 -> 274 ;
275 [label="C <= 0.5000\ngini = 0.286371011357\nsamples = 86", shape="box"] ;
3 -> 275 ;
276 [label="Algorithms <= 0.5000\ngini = 0.259253883002\nsamples = 83", shape="box"] ;
275 -> 276 ;
277 [label="C++ <= 0.5000\ngini = 0.241820345033\nsamples = 82", shape="box"] ;
276 -> 277 ;
278 [label="phd_1_mathematics <= 0.5000\ngini = 0.212031558185\nsamples = 78", shape="box"] ;
277 -> 278 ;
279 [label="R <= 0.5000\ngini = 0.195290858726\nsamples = 76", shape="box"] ;
278 -> 279 ;
280 [label="Predictive Analytics <= 0.5000\ngini = 0.054012345679\nsamples = 36", shape="box"] ;
279 -> 280 ;
281 [label="gini = 0.0000\nsamples = 26\nvalue = [  0.   0.  26.   0.   0.]", shape="box"] ;
280 -> 281 ;
282 [label="SPSS <= 0.5000\ngini = 0.18\nsamples = 10", shape="box"] ;
280 -> 282 ;
283 [label="gini = 0.0000\nsamples = 7\nvalue = [ 0.  0.  7.  0.  0.]", shape="box"] ;
282 -> 283 ;
284 [label="mas_1_statistics <= 0.5000\ngini = 0.444444444444\nsamples = 3", shape="box"] ;
282 -> 284 ;
285 [label="gini = 0.0000\nsamples = 1\nvalue = [ 0.  0.  0.  0.  1.]", shape="box"] ;
284 -> 285 ;
286 [label="gini = 0.0000\nsamples = 2\nvalue = [ 0.  0.  2.  0.  0.]", shape="box"] ;
284 -> 286 ;
287 [label="Mathematics <= 0.5000\ngini = 0.30625\nsamples = 40", shape="box"] ;
279 -> 287 ;
288 [label="Project Management <= 0.5000\ngini = 0.274819197896\nsamples = 39", shape="box"] ;
287 -> 288 ;
289 [label="Big Data <= 0.5000\ngini = 0.243973703433\nsamples = 37", shape="box"] ;
288 -> 289 ;
290 [label="Programming <= 0.5000\ngini = 0.210612244898\nsamples = 35", shape="box"] ;
289 -> 290 ;
291 [label="SPSS <= 0.5000\ngini = 0.173828125\nsamples = 32", shape="box"] ;
290 -> 291 ;
292 [label="Matlab <= 0.5000\ngini = 0.243801652893\nsamples = 22", shape="box"] ;
291 -> 292 ;
293 [label="Data Mining <= 0.5000\ngini = 0.3203125\nsamples = 16", shape="box"] ;
292 -> 293 ;
294 [label="Statistics <= 0.5000\ngini = 0.197530864198\nsamples = 9", shape="box"] ;
293 -> 294 ;
295 [label="gini = 0.0000\nsamples = 4\nvalue = [ 0.  0.  4.  0.  0.]", shape="box"] ;
294 -> 295 ;
296 [label="Predictive Analytics <= 0.5000\ngini = 0.32\nsamples = 5", shape="box"] ;
294 -> 296 ;
297 [label="Statistical Modeling <= 0.5000\ngini = 0.444444444444\nsamples = 3", shape="box"] ;
296 -> 297 ;
298 [label="gini = 0.0000\nsamples = 1\nvalue = [ 0.  0.  1.  0.  0.]", shape="box"] ;
297 -> 298 ;
299 [label="gini = 0.5000\nsamples = 2\nvalue = [ 0.  0.  1.  1.  0.]", shape="box"] ;
297 -> 299 ;
300 [label="gini = 0.0000\nsamples = 2\nvalue = [ 0.  0.  2.  0.  0.]", shape="box"] ;
296 -> 300 ;
301 [label="SQL <= 0.5000\ngini = 0.408163265306\nsamples = 7", shape="box"] ;
293 -> 301 ;
302 [label="Java <= 0.5000\ngini = 0.48\nsamples = 5", shape="box"] ;
301 -> 302 ;
303 [label="Statistical Modeling <= 0.5000\ngini = 0.5\nsamples = 4", shape="box"] ;
302 -> 303 ;
304 [label="mas_1_statistics <= 0.5000\ngini = 0.5\nsamples = 2", shape="box"] ;
303 -> 304 ;
305 [label="gini = 0.0000\nsamples = 1\nvalue = [ 0.  1.  0.  0.  0.]", shape="box"] ;
304 -> 305 ;
306 [label="gini = 0.0000\nsamples = 1\nvalue = [ 0.  0.  1.  0.  0.]", shape="box"] ;
304 -> 306 ;
307 [label="mas_1_statistics <= 0.5000\ngini = 0.5\nsamples = 2", shape="box"] ;
303 -> 307 ;
308 [label="gini = 0.0000\nsamples = 1\nvalue = [ 0.  0.  1.  0.  0.]", shape="box"] ;
307 -> 308 ;
309 [label="gini = 0.0000\nsamples = 1\nvalue = [ 0.  1.  0.  0.  0.]", shape="box"] ;
307 -> 309 ;
310 [label="gini = 0.0000\nsamples = 1\nvalue = [ 0.  0.  1.  0.  0.]", shape="box"] ;
302 -> 310 ;
311 [label="gini = 0.0000\nsamples = 2\nvalue = [ 0.  0.  2.  0.  0.]", shape="box"] ;
301 -> 311 ;
312 [label="gini = 0.0000\nsamples = 6\nvalue = [ 0.  0.  6.  0.  0.]", shape="box"] ;
292 -> 312 ;
313 [label="gini = 0.0000\nsamples = 10\nvalue = [  0.   0.  10.   0.   0.]", shape="box"] ;
291 -> 313 ;
314 [label="Statistical Modeling <= 0.5000\ngini = 0.444444444444\nsamples = 3", shape="box"] ;
290 -> 314 ;
315 [label="gini = 0.0000\nsamples = 1\nvalue = [ 0.  0.  0.  0.  1.]", shape="box"] ;
314 -> 315 ;
316 [label="gini = 0.0000\nsamples = 2\nvalue = [ 0.  0.  2.  0.  0.]", shape="box"] ;
314 -> 316 ;
317 [label="Data Analysis <= 0.5000\ngini = 0.5\nsamples = 2", shape="box"] ;
289 -> 317 ;
318 [label="gini = 0.0000\nsamples = 1\nvalue = [ 0.  1.  0.  0.  0.]", shape="box"] ;
317 -> 318 ;
319 [label="gini = 0.0000\nsamples = 1\nvalue = [ 0.  0.  1.  0.  0.]", shape="box"] ;
317 -> 319 ;
320 [label="Statistical Modeling <= 0.5000\ngini = 0.5\nsamples = 2", shape="box"] ;
288 -> 320 ;
321 [label="gini = 0.0000\nsamples = 1\nvalue = [ 0.  0.  0.  1.  0.]", shape="box"] ;
320 -> 321 ;
322 [label="gini = 0.0000\nsamples = 1\nvalue = [ 0.  0.  1.  0.  0.]", shape="box"] ;
320 -> 322 ;
323 [label="gini = 0.0000\nsamples = 1\nvalue = [ 0.  1.  0.  0.  0.]", shape="box"] ;
287 -> 323 ;
324 [label="Data Analysis <= 0.5000\ngini = 0.5\nsamples = 2", shape="box"] ;
278 -> 324 ;
325 [label="gini = 0.0000\nsamples = 1\nvalue = [ 0.  1.  0.  0.  0.]", shape="box"] ;
324 -> 325 ;
326 [label="gini = 0.0000\nsamples = 1\nvalue = [ 0.  0.  1.  0.  0.]", shape="box"] ;
324 -> 326 ;
327 [label="SQL <= 0.5000\ngini = 0.5\nsamples = 4", shape="box"] ;
277 -> 327 ;
328 [label="gini = 0.0000\nsamples = 1\nvalue = [ 0.  1.  0.  0.  0.]", shape="box"] ;
327 -> 328 ;
329 [label="Perl <= 0.5000\ngini = 0.444444444444\nsamples = 3", shape="box"] ;
327 -> 329 ;
330 [label="gini = 0.0000\nsamples = 2\nvalue = [ 0.  0.  2.  0.  0.]", shape="box"] ;
329 -> 330 ;
331 [label="gini = 0.0000\nsamples = 1\nvalue = [ 0.  1.  0.  0.  0.]", shape="box"] ;
329 -> 331 ;
332 [label="gini = 0.0000\nsamples = 1\nvalue = [ 0.  0.  0.  0.  1.]", shape="box"] ;
276 -> 332 ;
333 [label="Python <= 0.5000\ngini = 0.444444444444\nsamples = 3", shape="box"] ;
275 -> 333 ;
334 [label="gini = 0.0000\nsamples = 2\nvalue = [ 0.  2.  0.  0.  0.]", shape="box"] ;
333 -> 334 ;
335 [label="gini = 0.0000\nsamples = 1\nvalue = [ 0.  0.  1.  0.  0.]", shape="box"] ;
333 -> 335 ;
336 [label="Mathematics <= 0.5000\ngini = 0.25125923028\nsamples = 143", shape="box"] ;
2 -> 336 ;
337 [label="Vendor Management <= 0.5000\ngini = 0.213085486242\nsamples = 138", shape="box"] ;
336 -> 337 ;
338 [label="Statistical Modeling <= 0.5000\ngini = 0.201609036177\nsamples = 137", shape="box"] ;
337 -> 338 ;
339 [label="R <= 0.5000\ngini = 0.190419550173\nsamples = 136", shape="box"] ;
338 -> 339 ;
340 [label="phd_1_mathematics <= 0.5000\ngini = 0.178875171468\nsamples = 135", shape="box"] ;
339 -> 340 ;
341 [label="Project Management <= 0.5000\ngini = 0.167409222544\nsamples = 134", shape="box"] ;
340 -> 341 ;
342 [label="Data Mining <= 0.5000\ngini = 0.145207100592\nsamples = 130", shape="box"] ;
341 -> 342 ;
343 [label="C <= 0.5000\ngini = 0.134168268337\nsamples = 127", shape="box"] ;
342 -> 343 ;
344 [label="Programming <= 0.5000\ngini = 0.203627495809\nsamples = 81", shape="box"] ;
343 -> 344 ;
345 [label="mas_1_computer science <= 0.5000\ngini = 0.165657439446\nsamples = 68", shape="box"] ;
344 -> 345 ;
346 [label="MySQL <= 0.5000\ngini = 0.122268470343\nsamples = 62", shape="box"] ;
345 -> 346 ;
347 [label="Java <= 0.5000\ngini = 0.0444214876033\nsamples = 44", shape="box"] ;
346 -> 347 ;
348 [label="Software Development <= 0.5000\ngini = 0.104938271605\nsamples = 18", shape="box"] ;
347 -> 348 ;
349 [label="gini = 0.0000\nsamples = 8\nvalue = [ 8.  0.  0.  0.  0.]", shape="box"] ;
348 -> 349 ;
350 [label="C++ <= 0.5000\ngini = 0.18\nsamples = 10", shape="box"] ;
348 -> 350 ;
351 [label="Big Data <= 0.5000\ngini = 0.375\nsamples = 4", shape="box"] ;
350 -> 351 ;
352 [label="Perl <= 0.5000\ngini = 0.444444444444\nsamples = 3", shape="box"] ;
351 -> 352 ;
353 [label="gini = 0.5000\nsamples = 2\nvalue = [ 1.  0.  0.  0.  1.]", shape="box"] ;
352 -> 353 ;
354 [label="gini = 0.0000\nsamples = 1\nvalue = [ 1.  0.  0.  0.  0.]", shape="box"] ;
352 -> 354 ;
355 [label="gini = 0.0000\nsamples = 1\nvalue = [ 1.  0.  0.  0.  0.]", shape="box"] ;
351 -> 355 ;
356 [label="gini = 0.0000\nsamples = 6\nvalue = [ 6.  0.  0.  0.  0.]", shape="box"] ;
350 -> 356 ;
357 [label="gini = 0.0000\nsamples = 26\nvalue = [ 26.   0.   0.   0.   0.]", shape="box"] ;
347 -> 357 ;
358 [label="Object Oriented Design <= 0.5000\ngini = 0.29012345679\nsamples = 18", shape="box"] ;
346 -> 358 ;
359 [label="Perl <= 0.5000\ngini = 0.378698224852\nsamples = 13", shape="box"] ;
358 -> 359 ;
360 [label="Python <= 0.5000\ngini = 0.314049586777\nsamples = 11", shape="box"] ;
359 -> 360 ;
361 [label="Software Development <= 0.5000\ngini = 0.56\nsamples = 5", shape="box"] ;
360 -> 361 ;
362 [label="gini = 0.0000\nsamples = 1\nvalue = [ 0.  0.  0.  0.  1.]", shape="box"] ;
361 -> 362 ;
363 [label="Java <= 0.5000\ngini = 0.375\nsamples = 4", shape="box"] ;
361 -> 363 ;
364 [label="gini = 0.0000\nsamples = 1\nvalue = [ 0.  1.  0.  0.  0.]", shape="box"] ;
363 -> 364 ;
365 [label="gini = 0.0000\nsamples = 3\nvalue = [ 3.  0.  0.  0.  0.]", shape="box"] ;
363 -> 365 ;
366 [label="gini = 0.0000\nsamples = 6\nvalue = [ 6.  0.  0.  0.  0.]", shape="box"] ;
360 -> 366 ;
367 [label="SQL <= 0.5000\ngini = 0.5\nsamples = 2", shape="box"] ;
359 -> 367 ;
368 [label="gini = 0.0000\nsamples = 1\nvalue = [ 0.  0.  0.  0.  1.]", shape="box"] ;
367 -> 368 ;
369 [label="gini = 0.0000\nsamples = 1\nvalue = [ 1.  0.  0.  0.  0.]", shape="box"] ;
367 -> 369 ;
370 [label="gini = 0.0000\nsamples = 5\nvalue = [ 5.  0.  0.  0.  0.]", shape="box"] ;
358 -> 370 ;
371 [label="bc_1_computer science <= 0.5000\ngini = 0.5\nsamples = 6", shape="box"] ;
345 -> 371 ;
372 [label="Java <= 0.5000\ngini = 0.32\nsamples = 5", shape="box"] ;
371 -> 372 ;
373 [label="gini = 0.5000\nsamples = 2\nvalue = [ 1.  0.  0.  1.  0.]", shape="box"] ;
372 -> 373 ;
374 [label="gini = 0.0000\nsamples = 3\nvalue = [ 3.  0.  0.  0.  0.]", shape="box"] ;
372 -> 374 ;
375 [label="gini = 0.0000\nsamples = 1\nvalue = [ 0.  1.  0.  0.  0.]", shape="box"] ;
371 -> 375 ;
376 [label="Big Data <= 0.5000\ngini = 0.355029585799\nsamples = 13", shape="box"] ;
344 -> 376 ;
377 [label="Distributed Systems <= 0.5000\ngini = 0.277777777778\nsamples = 12", shape="box"] ;
376 -> 377 ;
378 [label="Perl <= 0.5000\ngini = 0.444444444444\nsamples = 6", shape="box"] ;
377 -> 378 ;
379 [label="bc_1_computer science <= 0.5000\ngini = 0.32\nsamples = 5", shape="box"] ;
378 -> 379 ;
380 [label="gini = 0.0000\nsamples = 3\nvalue = [ 3.  0.  0.  0.  0.]", shape="box"] ;
379 -> 380 ;
381 [label="Software Development <= 0.5000\ngini = 0.5\nsamples = 2", shape="box"] ;
379 -> 381 ;
382 [label="gini = 0.0000\nsamples = 1\nvalue = [ 0.  0.  0.  0.  1.]", shape="box"] ;
381 -> 382 ;
383 [label="gini = 0.0000\nsamples = 1\nvalue = [ 1.  0.  0.  0.  0.]", shape="box"] ;
381 -> 383 ;
384 [label="gini = 0.0000\nsamples = 1\nvalue = [ 0.  0.  0.  0.  1.]", shape="box"] ;
378 -> 384 ;
385 [label="gini = 0.0000\nsamples = 6\nvalue = [ 6.  0.  0.  0.  0.]", shape="box"] ;
377 -> 385 ;
386 [label="gini = 0.0000\nsamples = 1\nvalue = [ 0.  0.  0.  0.  1.]", shape="box"] ;
376 -> 386 ;
387 [label="gini = 0.0000\nsamples = 46\nvalue = [ 46.   0.   0.   0.   0.]", shape="box"] ;
343 -> 387 ;
388 [label="C <= 0.5000\ngini = 0.444444444444\nsamples = 3", shape="box"] ;
342 -> 388 ;
389 [label="gini = 0.0000\nsamples = 2\nvalue = [ 2.  0.  0.  0.  0.]", shape="box"] ;
388 -> 389 ;
390 [label="gini = 0.0000\nsamples = 1\nvalue = [ 0.  1.  0.  0.  0.]", shape="box"] ;
388 -> 390 ;
391 [label="C++ <= 0.5000\ngini = 0.625\nsamples = 4", shape="box"] ;
341 -> 391 ;
392 [label="Object Oriented Design <= 0.5000\ngini = 0.5\nsamples = 2", shape="box"] ;
391 -> 392 ;
393 [label="gini = 0.0000\nsamples = 1\nvalue = [ 0.  1.  0.  0.  0.]", shape="box"] ;
392 -> 393 ;
394 [label="gini = 0.0000\nsamples = 1\nvalue = [ 0.  0.  0.  0.  1.]", shape="box"] ;
392 -> 394 ;
395 [label="gini = 0.0000\nsamples = 2\nvalue = [ 2.  0.  0.  0.  0.]", shape="box"] ;
391 -> 395 ;
396 [label="gini = 0.0000\nsamples = 1\nvalue = [ 0.  0.  0.  0.  1.]", shape="box"] ;
340 -> 396 ;
397 [label="gini = 0.0000\nsamples = 1\nvalue = [ 0.  1.  0.  0.  0.]", shape="box"] ;
339 -> 397 ;
398 [label="gini = 0.0000\nsamples = 1\nvalue = [ 0.  1.  0.  0.  0.]", shape="box"] ;
338 -> 398 ;
399 [label="gini = 0.0000\nsamples = 1\nvalue = [ 0.  0.  1.  0.  0.]", shape="box"] ;
337 -> 399 ;
400 [label="Matlab <= 0.5000\ngini = 0.32\nsamples = 5", shape="box"] ;
336 -> 400 ;
401 [label="gini = 0.0000\nsamples = 4\nvalue = [ 0.  0.  0.  0.  4.]", shape="box"] ;
400 -> 401 ;
402 [label="gini = 0.0000\nsamples = 1\nvalue = [ 1.  0.  0.  0.  0.]", shape="box"] ;
400 -> 402 ;
403 [label="phd_1_mathematics <= 0.5000\ngini = 0.621858690408\nsamples = 302", shape="box"] ;
1 -> 403 ;
404 [label="R <= 0.5000\ngini = 0.604939496132\nsamples = 284", shape="box"] ;
403 -> 404 ;
405 [label="C++ <= 0.5000\ngini = 0.637151754903\nsamples = 109", shape="box"] ;
404 -> 405 ;
406 [label="Applied Mathematics <= 0.5000\ngini = 0.562582097955\nsamples = 73", shape="box"] ;
405 -> 406 ;
407 [label="Data Science <= 0.5000\ngini = 0.492315444696\nsamples = 63", shape="box"] ;
406 -> 407 ;
408 [label="Hadoop <= 0.5000\ngini = 0.572048611111\nsamples = 48", shape="box"] ;
407 -> 408 ;
409 [label="Linux <= 0.5000\ngini = 0.461805555556\nsamples = 24", shape="box"] ;
408 -> 409 ;
410 [label="SPSS <= 0.5000\ngini = 0.345\nsamples = 20", shape="box"] ;
409 -> 410 ;
411 [label="Statistics <= 0.5000\ngini = 0.277008310249\nsamples = 19", shape="box"] ;
410 -> 411 ;
412 [label="bc_1_computer science <= 0.5000\ngini = 0.14201183432\nsamples = 13", shape="box"] ;
411 -> 412 ;
413 [label="gini = 0.0000\nsamples = 11\nvalue = [  0.  11.   0.   0.   0.]", shape="box"] ;
412 -> 413 ;
414 [label="Predictive Analytics <= 0.5000\ngini = 0.5\nsamples = 2", shape="box"] ;
412 -> 414 ;
415 [label="gini = 0.0000\nsamples = 1\nvalue = [ 1.  0.  0.  0.  0.]", shape="box"] ;
414 -> 415 ;
416 [label="gini = 0.0000\nsamples = 1\nvalue = [ 0.  1.  0.  0.  0.]", shape="box"] ;
414 -> 416 ;
417 [label="Data Mining <= 0.5000\ngini = 0.444444444444\nsamples = 6", shape="box"] ;
411 -> 417 ;
418 [label="Programming <= 0.5000\ngini = 0.444444444444\nsamples = 3", shape="box"] ;
417 -> 418 ;
419 [label="gini = 0.0000\nsamples = 2\nvalue = [ 0.  0.  2.  0.  0.]", shape="box"] ;
418 -> 419 ;
420 [label="gini = 0.0000\nsamples = 1\nvalue = [ 0.  1.  0.  0.  0.]", shape="box"] ;
418 -> 420 ;
421 [label="gini = 0.0000\nsamples = 3\nvalue = [ 0.  3.  0.  0.  0.]", shape="box"] ;
417 -> 421 ;
422 [label="gini = 0.0000\nsamples = 1\nvalue = [ 0.  0.  0.  0.  1.]", shape="box"] ;
410 -> 422 ;
423 [label="SQL <= 0.5000\ngini = 0.375\nsamples = 4", shape="box"] ;
409 -> 423 ;
424 [label="gini = 0.0000\nsamples = 3\nvalue = [ 0.  0.  0.  0.  3.]", shape="box"] ;
423 -> 424 ;
425 [label="gini = 0.0000\nsamples = 1\nvalue = [ 0.  1.  0.  0.  0.]", shape="box"] ;
423 -> 425 ;
426 [label="SQL <= 0.5000\ngini = 0.600694444444\nsamples = 24", shape="box"] ;
408 -> 426 ;
427 [label="bc_1_computer science <= 0.5000\ngini = 0.59375\nsamples = 16", shape="box"] ;
426 -> 427 ;
428 [label="Statistical Modeling <= 0.5000\ngini = 0.571428571429\nsamples = 14", shape="box"] ;
427 -> 428 ;
429 [label="Data Mining <= 0.5000\ngini = 0.520710059172\nsamples = 13", shape="box"] ;
428 -> 429 ;
430 [label="gini = 0.0000\nsamples = 3\nvalue = [ 3.  0.  0.  0.  0.]", shape="box"] ;
429 -> 430 ;
431 [label="Software Development <= 0.5000\ngini = 0.58\nsamples = 10", shape="box"] ;
429 -> 431 ;
432 [label="Python <= 0.5000\ngini = 0.567901234568\nsamples = 9", shape="box"] ;
431 -> 432 ;
433 [label="Perl <= 0.5000\ngini = 0.444444444444\nsamples = 6", shape="box"] ;
432 -> 433 ;
434 [label="Java <= 0.5000\ngini = 0.48\nsamples = 5", shape="box"] ;
433 -> 434 ;
435 [label="Distributed Systems <= 0.5000\ngini = 0.375\nsamples = 4", shape="box"] ;
434 -> 435 ;
436 [label="Data Analysis <= 0.5000\ngini = 0.5\nsamples = 2", shape="box"] ;
435 -> 436 ;
437 [label="gini = 0.0000\nsamples = 1\nvalue = [ 0.  1.  0.  0.  0.]", shape="box"] ;
436 -> 437 ;
438 [label="gini = 0.0000\nsamples = 1\nvalue = [ 1.  0.  0.  0.  0.]", shape="box"] ;
436 -> 438 ;
439 [label="gini = 0.0000\nsamples = 2\nvalue = [ 2.  0.  0.  0.  0.]", shape="box"] ;
435 -> 439 ;
440 [label="gini = 0.0000\nsamples = 1\nvalue = [ 0.  1.  0.  0.  0.]", shape="box"] ;
434 -> 440 ;
441 [label="gini = 0.0000\nsamples = 1\nvalue = [ 1.  0.  0.  0.  0.]", shape="box"] ;
433 -> 441 ;
442 [label="Java <= 0.5000\ngini = 0.666666666667\nsamples = 3", shape="box"] ;
432 -> 442 ;
443 [label="gini = 0.0000\nsamples = 1\nvalue = [ 0.  1.  0.  0.  0.]", shape="box"] ;
442 -> 443 ;
444 [label="Distributed Systems <= 0.5000\ngini = 0.5\nsamples = 2", shape="box"] ;
442 -> 444 ;
445 [label="gini = 0.0000\nsamples = 1\nvalue = [ 1.  0.  0.  0.  0.]", shape="box"] ;
444 -> 445 ;
446 [label="gini = 0.0000\nsamples = 1\nvalue = [ 0.  0.  0.  0.  1.]", shape="box"] ;
444 -> 446 ;
447 [label="gini = 0.0000\nsamples = 1\nvalue = [ 0.  1.  0.  0.  0.]", shape="box"] ;
431 -> 447 ;
448 [label="gini = 0.0000\nsamples = 1\nvalue = [ 0.  0.  0.  0.  1.]", shape="box"] ;
428 -> 448 ;
449 [label="gini = 0.0000\nsamples = 2\nvalue = [ 0.  2.  0.  0.  0.]", shape="box"] ;
427 -> 449 ;
450 [label="C <= 0.5000\ngini = 0.40625\nsamples = 8", shape="box"] ;
426 -> 450 ;
451 [label="gini = 0.0000\nsamples = 5\nvalue = [ 0.  5.  0.  0.  0.]", shape="box"] ;
450 -> 451 ;
452 [label="Python <= 0.5000\ngini = 0.666666666667\nsamples = 3", shape="box"] ;
450 -> 452 ;
453 [label="gini = 0.0000\nsamples = 1\nvalue = [ 1.  0.  0.  0.  0.]", shape="box"] ;
452 -> 453 ;
454 [label="gini = 0.5000\nsamples = 2\nvalue = [ 0.  1.  1.  0.  0.]", shape="box"] ;
452 -> 454 ;
455 [label="Linux <= 0.5000\ngini = 0.124444444444\nsamples = 15", shape="box"] ;
407 -> 455 ;
456 [label="gini = 0.0000\nsamples = 12\nvalue = [  0.  12.   0.   0.   0.]", shape="box"] ;
455 -> 456 ;
457 [label="Big Data <= 0.5000\ngini = 0.444444444444\nsamples = 3", shape="box"] ;
455 -> 457 ;
458 [label="gini = 0.0000\nsamples = 1\nvalue = [ 1.  0.  0.  0.  0.]", shape="box"] ;
457 -> 458 ;
459 [label="gini = 0.0000\nsamples = 2\nvalue = [ 0.  2.  0.  0.  0.]", shape="box"] ;
457 -> 459 ;
460 [label="SQL <= 0.5000\ngini = 0.46\nsamples = 10", shape="box"] ;
406 -> 460 ;
461 [label="Matlab <= 0.5000\ngini = 0.21875\nsamples = 8", shape="box"] ;
460 -> 461 ;
462 [label="gini = 0.0000\nsamples = 6\nvalue = [ 0.  0.  0.  0.  6.]", shape="box"] ;
461 -> 462 ;
463 [label="Algorithms <= 0.5000\ngini = 0.5\nsamples = 2", shape="box"] ;
461 -> 463 ;
464 [label="gini = 0.0000\nsamples = 1\nvalue = [ 0.  0.  0.  0.  1.]", shape="box"] ;
463 -> 464 ;
465 [label="gini = 0.0000\nsamples = 1\nvalue = [ 0.  0.  1.  0.  0.]", shape="box"] ;
463 -> 465 ;
466 [label="gini = 0.0000\nsamples = 2\nvalue = [ 0.  2.  0.  0.  0.]", shape="box"] ;
460 -> 466 ;
467 [label="Predictive Analytics <= 0.5000\ngini = 0.615740740741\nsamples = 36", shape="box"] ;
405 -> 467 ;
468 [label="Programming <= 0.5000\ngini = 0.589531680441\nsamples = 33", shape="box"] ;
467 -> 468 ;
469 [label="Data Science <= 0.5000\ngini = 0.39446366782\nsamples = 17", shape="box"] ;
468 -> 469 ;
470 [label="Data Analysis <= 0.5000\ngini = 0.328125\nsamples = 16", shape="box"] ;
469 -> 470 ;
471 [label="Python <= 0.5000\ngini = 0.255102040816\nsamples = 14", shape="box"] ;
470 -> 471 ;
472 [label="Big Data <= 0.5000\ngini = 0.5\nsamples = 2", shape="box"] ;
471 -> 472 ;
473 [label="gini = 0.0000\nsamples = 1\nvalue = [ 1.  0.  0.  0.  0.]", shape="box"] ;
472 -> 473 ;
474 [label="gini = 0.0000\nsamples = 1\nvalue = [ 0.  0.  0.  0.  1.]", shape="box"] ;
472 -> 474 ;
475 [label="Algorithms <= 0.5000\ngini = 0.152777777778\nsamples = 12", shape="box"] ;
471 -> 475 ;
476 [label="Linux <= 0.5000\ngini = 0.32\nsamples = 5", shape="box"] ;
475 -> 476 ;
477 [label="gini = 0.0000\nsamples = 1\nvalue = [ 0.  0.  1.  0.  0.]", shape="box"] ;
476 -> 477 ;
478 [label="gini = 0.0000\nsamples = 4\nvalue = [ 4.  0.  0.  0.  0.]", shape="box"] ;
476 -> 478 ;
479 [label="gini = 0.0000\nsamples = 7\nvalue = [ 7.  0.  0.  0.  0.]", shape="box"] ;
475 -> 479 ;
480 [label="Algorithms <= 0.5000\ngini = 0.5\nsamples = 2", shape="box"] ;
470 -> 480 ;
481 [label="gini = 0.0000\nsamples = 1\nvalue = [ 0.  1.  0.  0.  0.]", shape="box"] ;
480 -> 481 ;
482 [label="gini = 0.0000\nsamples = 1\nvalue = [ 1.  0.  0.  0.  0.]", shape="box"] ;
480 -> 482 ;
483 [label="gini = 0.0000\nsamples = 1\nvalue = [ 0.  1.  0.  0.  0.]", shape="box"] ;
469 -> 483 ;
484 [label="Java <= 0.5000\ngini = 0.6640625\nsamples = 16", shape="box"] ;
468 -> 484 ;
485 [label="Software Engineering <= 0.5000\ngini = 0.375\nsamples = 4", shape="box"] ;
484 -> 485 ;
486 [label="gini = 0.0000\nsamples = 1\nvalue = [ 0.  1.  0.  0.  0.]", shape="box"] ;
485 -> 486 ;
487 [label="gini = 0.0000\nsamples = 3\nvalue = [ 0.  0.  0.  0.  3.]", shape="box"] ;
485 -> 487 ;
488 [label="Python <= 0.5000\ngini = 0.611111111111\nsamples = 12", shape="box"] ;
484 -> 488 ;
489 [label="Distributed Systems <= 0.5000\ngini = 0.56\nsamples = 5", shape="box"] ;
488 -> 489 ;
490 [label="Software Development <= 0.5000\ngini = 0.5\nsamples = 2", shape="box"] ;
489 -> 490 ;
491 [label="gini = 0.0000\nsamples = 1\nvalue = [ 1.  0.  0.  0.  0.]", shape="box"] ;
490 -> 491 ;
492 [label="gini = 0.0000\nsamples = 1\nvalue = [ 0.  0.  0.  0.  1.]", shape="box"] ;
490 -> 492 ;
493 [label="gini = 0.0000\nsamples = 3\nvalue = [ 0.  3.  0.  0.  0.]", shape="box"] ;
489 -> 493 ;
494 [label="Linux <= 0.5000\ngini = 0.448979591837\nsamples = 7", shape="box"] ;
488 -> 494 ;
495 [label="gini = 0.0000\nsamples = 1\nvalue = [ 0.  1.  0.  0.  0.]", shape="box"] ;
494 -> 495 ;
496 [label="Perl <= 0.5000\ngini = 0.277777777778\nsamples = 6", shape="box"] ;
494 -> 496 ;
497 [label="gini = 0.0000\nsamples = 4\nvalue = [ 4.  0.  0.  0.  0.]", shape="box"] ;
496 -> 497 ;
498 [label="Statistical Modeling <= 0.5000\ngini = 0.5\nsamples = 2", shape="box"] ;
496 -> 498 ;
499 [label="gini = 0.0000\nsamples = 1\nvalue = [ 0.  0.  0.  0.  1.]", shape="box"] ;
498 -> 499 ;
500 [label="gini = 0.0000\nsamples = 1\nvalue = [ 1.  0.  0.  0.  0.]", shape="box"] ;
498 -> 500 ;
501 [label="gini = 0.0000\nsamples = 3\nvalue = [ 0.  3.  0.  0.  0.]", shape="box"] ;
467 -> 501 ;
502 [label="SAS <= 0.5000\ngini = 0.540408163265\nsamples = 175", shape="box"] ;
404 -> 502 ;
503 [label="Requirements Analysis <= 0.5000\ngini = 0.487462277092\nsamples = 135", shape="box"] ;
502 -> 503 ;
504 [label="Statistical Modeling <= 0.5000\ngini = 0.476906552095\nsamples = 133", shape="box"] ;
503 -> 504 ;
505 [label="Linux <= 0.5000\ngini = 0.413210733721\nsamples = 73", shape="box"] ;
504 -> 505 ;
506 [label="Java <= 0.5000\ngini = 0.346111111111\nsamples = 60", shape="box"] ;
505 -> 506 ;
507 [label="Python <= 0.5000\ngini = 0.44625\nsamples = 40", shape="box"] ;
506 -> 507 ;
508 [label="Data Mining <= 0.5000\ngini = 0.152777777778\nsamples = 12", shape="box"] ;
507 -> 508 ;
509 [label="Data Analysis <= 0.5000\ngini = 0.375\nsamples = 4", shape="box"] ;
508 -> 509 ;
510 [label="Algorithms <= 0.5000\ngini = 0.5\nsamples = 2", shape="box"] ;
509 -> 510 ;
511 [label="gini = 0.0000\nsamples = 1\nvalue = [ 0.  1.  0.  0.  0.]", shape="box"] ;
510 -> 511 ;
512 [label="gini = 0.0000\nsamples = 1\nvalue = [ 0.  0.  0.  0.  1.]", shape="box"] ;
510 -> 512 ;
513 [label="gini = 0.0000\nsamples = 2\nvalue = [ 0.  2.  0.  0.  0.]", shape="box"] ;
509 -> 513 ;
514 [label="gini = 0.0000\nsamples = 8\nvalue = [ 0.  8.  0.  0.  0.]", shape="box"] ;
508 -> 514 ;
515 [label="Software Engineering <= 0.5000\ngini = 0.533163265306\nsamples = 28", shape="box"] ;
507 -> 515 ;
516 [label="Data Analysis <= 0.5000\ngini = 0.479289940828\nsamples = 26", shape="box"] ;
515 -> 516 ;
517 [label="SQL <= 0.5000\ngini = 0.561983471074\nsamples = 11", shape="box"] ;
516 -> 517 ;
518 [label="Data Science <= 0.5000\ngini = 0.32\nsamples = 5", shape="box"] ;
517 -> 518 ;
519 [label="gini = 0.0000\nsamples = 4\nvalue = [ 0.  4.  0.  0.  0.]", shape="box"] ;
518 -> 519 ;
520 [label="gini = 0.0000\nsamples = 1\nvalue = [ 0.  0.  1.  0.  0.]", shape="box"] ;
518 -> 520 ;
521 [label="Predictive Analytics <= 0.5000\ngini = 0.611111111111\nsamples = 6", shape="box"] ;
517 -> 521 ;
522 [label="Data Science <= 0.5000\ngini = 0.56\nsamples = 5", shape="box"] ;
521 -> 522 ;
523 [label="gini = 0.0000\nsamples = 2\nvalue = [ 0.  0.  2.  0.  0.]", shape="box"] ;
522 -> 523 ;
524 [label="Matlab <= 0.5000\ngini = 0.666666666667\nsamples = 3", shape="box"] ;
522 -> 524 ;
525 [label="gini = 0.0000\nsamples = 1\nvalue = [ 0.  0.  0.  1.  0.]", shape="box"] ;
524 -> 525 ;
526 [label="gini = 0.5000\nsamples = 2\nvalue = [ 0.  1.  1.  0.  0.]", shape="box"] ;
524 -> 526 ;
527 [label="gini = 0.0000\nsamples = 1\nvalue = [ 0.  1.  0.  0.  0.]", shape="box"] ;
521 -> 527 ;
528 [label="Algorithms <= 0.5000\ngini = 0.346666666667\nsamples = 15", shape="box"] ;
516 -> 528 ;
529 [label="gini = 0.0000\nsamples = 7\nvalue = [ 0.  7.  0.  0.  0.]", shape="box"] ;
528 -> 529 ;
530 [label="Perl <= 0.5000\ngini = 0.5625\nsamples = 8", shape="box"] ;
528 -> 530 ;
531 [label="C++ <= 0.5000\ngini = 0.448979591837\nsamples = 7", shape="box"] ;
530 -> 531 ;
532 [label="Big Data <= 0.5000\ngini = 0.56\nsamples = 5", shape="box"] ;
531 -> 532 ;
533 [label="MySQL <= 0.5000\ngini = 0.444444444444\nsamples = 3", shape="box"] ;
532 -> 533 ;
534 [label="gini = 0.5000\nsamples = 2\nvalue = [ 0.  1.  0.  0.  1.]", shape="box"] ;
533 -> 534 ;
535 [label="gini = 0.0000\nsamples = 1\nvalue = [ 0.  1.  0.  0.  0.]", shape="box"] ;
533 -> 535 ;
536 [label="gini = 0.5000\nsamples = 2\nvalue = [ 1.  1.  0.  0.  0.]", shape="box"] ;
532 -> 536 ;
537 [label="gini = 0.0000\nsamples = 2\nvalue = [ 0.  2.  0.  0.  0.]", shape="box"] ;
531 -> 537 ;
538 [label="gini = 0.0000\nsamples = 1\nvalue = [ 0.  0.  1.  0.  0.]", shape="box"] ;
530 -> 538 ;
539 [label="Statistics <= 0.5000\ngini = 0.5\nsamples = 2", shape="box"] ;
515 -> 539 ;
540 [label="gini = 0.0000\nsamples = 1\nvalue = [ 1.  0.  0.  0.  0.]", shape="box"] ;
539 -> 540 ;
541 [label="gini = 0.0000\nsamples = 1\nvalue = [ 0.  0.  1.  0.  0.]", shape="box"] ;
539 -> 541 ;
542 [label="MySQL <= 0.5000\ngini = 0.095\nsamples = 20", shape="box"] ;
506 -> 542 ;
543 [label="gini = 0.0000\nsamples = 18\nvalue = [  0.  18.   0.   0.   0.]", shape="box"] ;
542 -> 543 ;
544 [label="C <= 0.5000\ngini = 0.5\nsamples = 2", shape="box"] ;
542 -> 544 ;
545 [label="gini = 0.0000\nsamples = 1\nvalue = [ 0.  1.  0.  0.  0.]", shape="box"] ;
544 -> 545 ;
546 [label="gini = 0.0000\nsamples = 1\nvalue = [ 1.  0.  0.  0.  0.]", shape="box"] ;
544 -> 546 ;
547 [label="Perl <= 0.5000\ngini = 0.591715976331\nsamples = 13", shape="box"] ;
505 -> 547 ;
548 [label="gini = 0.0000\nsamples = 5\nvalue = [ 0.  5.  0.  0.  0.]", shape="box"] ;
547 -> 548 ;
549 [label="Data Science <= 0.5000\ngini = 0.625\nsamples = 8", shape="box"] ;
547 -> 549 ;
550 [label="Applied Mathematics <= 0.5000\ngini = 0.444444444444\nsamples = 6", shape="box"] ;
549 -> 550 ;
551 [label="Algorithms <= 0.5000\ngini = 0.32\nsamples = 5", shape="box"] ;
550 -> 551 ;
552 [label="Hadoop <= 0.5000\ngini = 0.5\nsamples = 2", shape="box"] ;
551 -> 552 ;
553 [label="gini = 0.0000\nsamples = 1\nvalue = [ 0.  0.  0.  0.  1.]", shape="box"] ;
552 -> 553 ;
554 [label="gini = 0.0000\nsamples = 1\nvalue = [ 1.  0.  0.  0.  0.]", shape="box"] ;
552 -> 554 ;
555 [label="gini = 0.0000\nsamples = 3\nvalue = [ 3.  0.  0.  0.  0.]", shape="box"] ;
551 -> 555 ;
556 [label="gini = 0.0000\nsamples = 1\nvalue = [ 0.  0.  0.  0.  1.]", shape="box"] ;
550 -> 556 ;
557 [label="gini = 0.0000\nsamples = 2\nvalue = [ 0.  2.  0.  0.  0.]", shape="box"] ;
549 -> 557 ;
558 [label="Software Development <= 0.5000\ngini = 0.528333333333\nsamples = 60", shape="box"] ;
504 -> 558 ;
559 [label="mas_1_statistics <= 0.5000\ngini = 0.54\nsamples = 50", shape="box"] ;
558 -> 559 ;
560 [label="Mathematics <= 0.5000\ngini = 0.524781341108\nsamples = 49", shape="box"] ;
559 -> 560 ;
561 [label="mas_1_computer science <= 0.5000\ngini = 0.552685950413\nsamples = 44", shape="box"] ;
560 -> 561 ;
562 [label="Matlab <= 0.5000\ngini = 0.52947845805\nsamples = 42", shape="box"] ;
561 -> 562 ;
563 [label="Java <= 0.5000\ngini = 0.584183673469\nsamples = 28", shape="box"] ;
562 -> 563 ;
564 [label="Distributed Systems <= 0.5000\ngini = 0.559027777778\nsamples = 24", shape="box"] ;
563 -> 564 ;
565 [label="Hadoop <= 0.5000\ngini = 0.623456790123\nsamples = 18", shape="box"] ;
564 -> 565 ;
566 [label="Data Analysis <= 0.5000\ngini = 0.5\nsamples = 12", shape="box"] ;
565 -> 566 ;
567 [label="SQL <= 0.5000\ngini = 0.375\nsamples = 4", shape="box"] ;
566 -> 567 ;
568 [label="gini = 0.0000\nsamples = 3\nvalue = [ 0.  3.  0.  0.  0.]", shape="box"] ;
567 -> 568 ;
569 [label="gini = 0.0000\nsamples = 1\nvalue = [ 0.  0.  1.  0.  0.]", shape="box"] ;
567 -> 569 ;
570 [label="C <= 0.5000\ngini = 0.46875\nsamples = 8", shape="box"] ;
566 -> 570 ;
571 [label="Predictive Analytics <= 0.5000\ngini = 0.408163265306\nsamples = 7", shape="box"] ;
570 -> 571 ;
572 [label="gini = 0.0000\nsamples = 3\nvalue = [ 0.  0.  3.  0.  0.]", shape="box"] ;
571 -> 572 ;
573 [label="Big Data <= 0.5000\ngini = 0.5\nsamples = 4", shape="box"] ;
571 -> 573 ;
574 [label="gini = 0.0000\nsamples = 1\nvalue = [ 0.  1.  0.  0.  0.]", shape="box"] ;
573 -> 574 ;
575 [label="SQL <= 0.5000\ngini = 0.444444444444\nsamples = 3", shape="box"] ;
573 -> 575 ;
576 [label="gini = 0.0000\nsamples = 2\nvalue = [ 0.  0.  2.  0.  0.]", shape="box"] ;
575 -> 576 ;
577 [label="gini = 0.0000\nsamples = 1\nvalue = [ 0.  1.  0.  0.  0.]", shape="box"] ;
575 -> 577 ;
578 [label="gini = 0.0000\nsamples = 1\nvalue = [ 0.  1.  0.  0.  0.]", shape="box"] ;
570 -> 578 ;
579 [label="Predictive Analytics <= 0.5000\ngini = 0.611111111111\nsamples = 6", shape="box"] ;
565 -> 579 ;
580 [label="Applied Mathematics <= 0.5000\ngini = 0.375\nsamples = 4", shape="box"] ;
579 -> 580 ;
581 [label="gini = 0.0000\nsamples = 3\nvalue = [ 0.  0.  0.  0.  3.]", shape="box"] ;
580 -> 581 ;
582 [label="gini = 0.0000\nsamples = 1\nvalue = [ 0.  0.  1.  0.  0.]", shape="box"] ;
580 -> 582 ;
583 [label="gini = 0.0000\nsamples = 2\nvalue = [ 0.  2.  0.  0.  0.]", shape="box"] ;
579 -> 583 ;
584 [label="gini = 0.0000\nsamples = 6\nvalue = [ 0.  6.  0.  0.  0.]", shape="box"] ;
564 -> 584 ;
585 [label="gini = 0.0000\nsamples = 4\nvalue = [ 0.  0.  4.  0.  0.]", shape="box"] ;
563 -> 585 ;
586 [label="Python <= 0.5000\ngini = 0.336734693878\nsamples = 14", shape="box"] ;
562 -> 586 ;
587 [label="Big Data <= 0.5000\ngini = 0.444444444444\nsamples = 3", shape="box"] ;
586 -> 587 ;
588 [label="gini = 0.0000\nsamples = 2\nvalue = [ 0.  0.  2.  0.  0.]", shape="box"] ;
587 -> 588 ;
589 [label="gini = 0.0000\nsamples = 1\nvalue = [ 0.  1.  0.  0.  0.]", shape="box"] ;
587 -> 589 ;
590 [label="Data Analysis <= 0.5000\ngini = 0.165289256198\nsamples = 11", shape="box"] ;
586 -> 590 ;
591 [label="Statistics <= 0.5000\ngini = 0.5\nsamples = 2", shape="box"] ;
590 -> 591 ;
592 [label="gini = 0.0000\nsamples = 1\nvalue = [ 0.  0.  1.  0.  0.]", shape="box"] ;
591 -> 592 ;
593 [label="gini = 0.0000\nsamples = 1\nvalue = [ 0.  1.  0.  0.  0.]", shape="box"] ;
591 -> 593 ;
594 [label="gini = 0.0000\nsamples = 9\nvalue = [ 0.  9.  0.  0.  0.]", shape="box"] ;
590 -> 594 ;
595 [label="Distributed Systems <= 0.5000\ngini = 0.5\nsamples = 2", shape="box"] ;
561 -> 595 ;
596 [label="gini = 0.0000\nsamples = 1\nvalue = [ 0.  0.  1.  0.  0.]", shape="box"] ;
595 -> 596 ;
597 [label="gini = 0.0000\nsamples = 1\nvalue = [ 0.  0.  0.  0.  1.]", shape="box"] ;
595 -> 597 ;
598 [label="gini = 0.0000\nsamples = 5\nvalue = [ 0.  5.  0.  0.  0.]", shape="box"] ;
560 -> 598 ;
599 [label="gini = 0.0000\nsamples = 1\nvalue = [ 0.  0.  0.  0.  1.]", shape="box"] ;
559 -> 599 ;
600 [label="Hadoop <= 0.5000\ngini = 0.32\nsamples = 10", shape="box"] ;
558 -> 600 ;
601 [label="gini = 0.0000\nsamples = 1\nvalue = [ 1.  0.  0.  0.  0.]", shape="box"] ;
600 -> 601 ;
602 [label="Data Analysis <= 0.5000\ngini = 0.197530864198\nsamples = 9", shape="box"] ;
600 -> 602 ;
603 [label="Matlab <= 0.5000\ngini = 0.375\nsamples = 4", shape="box"] ;
602 -> 603 ;
604 [label="gini = 0.0000\nsamples = 2\nvalue = [ 0.  2.  0.  0.  0.]", shape="box"] ;
603 -> 604 ;
605 [label="Software Engineering <= 0.5000\ngini = 0.5\nsamples = 2", shape="box"] ;
603 -> 605 ;
606 [label="gini = 0.0000\nsamples = 1\nvalue = [ 1.  0.  0.  0.  0.]", shape="box"] ;
605 -> 606 ;
607 [label="gini = 0.0000\nsamples = 1\nvalue = [ 0.  1.  0.  0.  0.]", shape="box"] ;
605 -> 607 ;
608 [label="gini = 0.0000\nsamples = 5\nvalue = [ 0.  5.  0.  0.  0.]", shape="box"] ;
602 -> 608 ;
609 [label="gini = 0.0000\nsamples = 2\nvalue = [ 0.  0.  2.  0.  0.]", shape="box"] ;
503 -> 609 ;
610 [label="Software Development <= 0.5000\ngini = 0.58875\nsamples = 40", shape="box"] ;
502 -> 610 ;
611 [label="Java <= 0.5000\ngini = 0.54638422206\nsamples = 37", shape="box"] ;
610 -> 611 ;
612 [label="Python <= 0.5000\ngini = 0.512396694215\nsamples = 22", shape="box"] ;
611 -> 612 ;
613 [label="Data Science <= 0.5000\ngini = 0.38062283737\nsamples = 17", shape="box"] ;
612 -> 613 ;
614 [label="mas_1_statistics <= 0.5000\ngini = 0.461538461538\nsamples = 13", shape="box"] ;
613 -> 614 ;
615 [label="SPSS <= 0.5000\ngini = 0.42\nsamples = 10", shape="box"] ;
614 -> 615 ;
616 [label="SQL <= 0.5000\ngini = 0.345679012346\nsamples = 9", shape="box"] ;
615 -> 616 ;
617 [label="gini = 0.0000\nsamples = 4\nvalue = [ 0.  0.  4.  0.  0.]", shape="box"] ;
616 -> 617 ;
618 [label="Predictive Analytics <= 0.5000\ngini = 0.48\nsamples = 5", shape="box"] ;
616 -> 618 ;
619 [label="gini = 0.0000\nsamples = 1\nvalue = [ 0.  1.  0.  0.  0.]", shape="box"] ;
618 -> 619 ;
620 [label="Linux <= 0.5000\ngini = 0.375\nsamples = 4", shape="box"] ;
618 -> 620 ;
621 [label="gini = 0.0000\nsamples = 2\nvalue = [ 0.  0.  2.  0.  0.]", shape="box"] ;
620 -> 621 ;
622 [label="gini = 0.5000\nsamples = 2\nvalue = [ 0.  1.  1.  0.  0.]", shape="box"] ;
620 -> 622 ;
623 [label="gini = 0.0000\nsamples = 1\nvalue = [ 0.  1.  0.  0.  0.]", shape="box"] ;
615 -> 623 ;
624 [label="SPSS <= 0.5000\ngini = 0.444444444444\nsamples = 3", shape="box"] ;
614 -> 624 ;
625 [label="Data Mining <= 0.5000\ngini = 0.5\nsamples = 2", shape="box"] ;
624 -> 625 ;
626 [label="gini = 0.0000\nsamples = 1\nvalue = [ 0.  0.  1.  0.  0.]", shape="box"] ;
625 -> 626 ;
627 [label="gini = 0.0000\nsamples = 1\nvalue = [ 0.  0.  0.  1.  0.]", shape="box"] ;
625 -> 627 ;
628 [label="gini = 0.0000\nsamples = 1\nvalue = [ 0.  0.  1.  0.  0.]", shape="box"] ;
624 -> 628 ;
629 [label="gini = 0.0000\nsamples = 4\nvalue = [ 0.  0.  4.  0.  0.]", shape="box"] ;
613 -> 629 ;
630 [label="C++ <= 0.5000\ngini = 0.56\nsamples = 5", shape="box"] ;
612 -> 630 ;
631 [label="Statistics <= 0.5000\ngini = 0.375\nsamples = 4", shape="box"] ;
630 -> 631 ;
632 [label="gini = 0.5000\nsamples = 2\nvalue = [ 0.  1.  0.  1.  0.]", shape="box"] ;
631 -> 632 ;
633 [label="gini = 0.0000\nsamples = 2\nvalue = [ 0.  2.  0.  0.  0.]", shape="box"] ;
631 -> 633 ;
634 [label="gini = 0.0000\nsamples = 1\nvalue = [ 0.  0.  1.  0.  0.]", shape="box"] ;
630 -> 634 ;
635 [label="SQL <= 0.5000\ngini = 0.444444444444\nsamples = 15", shape="box"] ;
611 -> 635 ;
636 [label="gini = 0.0000\nsamples = 6\nvalue = [ 0.  6.  0.  0.  0.]", shape="box"] ;
635 -> 636 ;
637 [label="Matlab <= 0.5000\ngini = 0.493827160494\nsamples = 9", shape="box"] ;
635 -> 637 ;
638 [label="Python <= 0.5000\ngini = 0.277777777778\nsamples = 6", shape="box"] ;
637 -> 638 ;
639 [label="gini = 0.0000\nsamples = 1\nvalue = [ 0.  1.  0.  0.  0.]", shape="box"] ;
638 -> 639 ;
640 [label="gini = 0.0000\nsamples = 5\nvalue = [ 0.  0.  5.  0.  0.]", shape="box"] ;
638 -> 640 ;
641 [label="gini = 0.0000\nsamples = 3\nvalue = [ 0.  3.  0.  0.  0.]", shape="box"] ;
637 -> 641 ;
642 [label="Algorithms <= 0.5000\ngini = 0.444444444444\nsamples = 3", shape="box"] ;
610 -> 642 ;
643 [label="gini = 0.0000\nsamples = 1\nvalue = [ 0.  1.  0.  0.  0.]", shape="box"] ;
642 -> 643 ;
644 [label="gini = 0.0000\nsamples = 2\nvalue = [ 0.  0.  0.  0.  2.]", shape="box"] ;
642 -> 644 ;
645 [label="SAS <= 0.5000\ngini = 0.401234567901\nsamples = 18", shape="box"] ;
403 -> 645 ;
646 [label="Project Management <= 0.5000\ngini = 0.3046875\nsamples = 16", shape="box"] ;
645 -> 646 ;
647 [label="bc_1_computer science <= 0.5000\ngini = 0.231111111111\nsamples = 15", shape="box"] ;
646 -> 647 ;
648 [label="Matlab <= 0.5000\ngini = 0.132653061224\nsamples = 14", shape="box"] ;
647 -> 648 ;
649 [label="gini = 0.0000\nsamples = 10\nvalue = [  0.   0.   0.   0.  10.]", shape="box"] ;
648 -> 649 ;
650 [label="Statistical Modeling <= 0.5000\ngini = 0.375\nsamples = 4", shape="box"] ;
648 -> 650 ;
651 [label="gini = 0.0000\nsamples = 1\nvalue = [ 0.  1.  0.  0.  0.]", shape="box"] ;
650 -> 651 ;
652 [label="gini = 0.0000\nsamples = 3\nvalue = [ 0.  0.  0.  0.  3.]", shape="box"] ;
650 -> 652 ;
653 [label="gini = 0.0000\nsamples = 1\nvalue = [ 0.  1.  0.  0.  0.]", shape="box"] ;
647 -> 653 ;
654 [label="gini = 0.0000\nsamples = 1\nvalue = [ 0.  1.  0.  0.  0.]", shape="box"] ;
646 -> 654 ;
655 [label="gini = 0.0000\nsamples = 2\nvalue = [ 0.  2.  0.  0.  0.]", shape="box"] ;
645 -> 655 ;
656 [label="Statistics <= 0.5000\ngini = 0.264918777881\nsamples = 218", shape="box"] ;
0 -> 656 ;
657 [label="Big Data <= 0.5000\ngini = 0.148057725694\nsamples = 192", shape="box"] ;
656 -> 657 ;
658 [label="Statistical Modeling <= 0.5000\ngini = 0.122170665459\nsamples = 188", shape="box"] ;
657 -> 658 ;
659 [label="Data Science <= 0.5000\ngini = 0.10353798127\nsamples = 186", shape="box"] ;
658 -> 659 ;
660 [label="Python <= 0.5000\ngini = 0.0940832724617\nsamples = 185", shape="box"] ;
659 -> 660 ;
661 [label="Data Analysis <= 0.5000\ngini = 0.0848636865837\nsamples = 183", shape="box"] ;
660 -> 661 ;
662 [label="Requirements Analysis <= 0.5000\ngini = 0.0288774042304\nsamples = 137", shape="box"] ;
661 -> 662 ;
663 [label="Integration <= 0.5000\ngini = 0.0720164609053\nsamples = 54", shape="box"] ;
662 -> 663 ;
664 [label="Project Management <= 0.5000\ngini = 0.0434567901235\nsamples = 45", shape="box"] ;
663 -> 664 ;
665 [label="SDLC <= 0.5000\ngini = 0.0831758034026\nsamples = 23", shape="box"] ;
664 -> 665 ;
666 [label="Requirements Gathering <= 0.5000\ngini = 0.1171875\nsamples = 16", shape="box"] ;
665 -> 666 ;
667 [label="MySQL <= 0.5000\ngini = 0.132653061224\nsamples = 14", shape="box"] ;
666 -> 667 ;
668 [label="Vendor Management <= 0.5000\ngini = 0.14201183432\nsamples = 13", shape="box"] ;
667 -> 668 ;
669 [label="gini = 0.1528\nsamples = 12\nvalue = [  0.   0.   0.  11.   1.]", shape="box"] ;
668 -> 669 ;
670 [label="gini = 0.0000\nsamples = 1\nvalue = [ 0.  0.  0.  1.  0.]", shape="box"] ;
668 -> 670 ;
671 [label="gini = 0.0000\nsamples = 1\nvalue = [ 0.  0.  0.  1.  0.]", shape="box"] ;
667 -> 671 ;
672 [label="gini = 0.0000\nsamples = 2\nvalue = [ 0.  0.  0.  2.  0.]", shape="box"] ;
666 -> 672 ;
673 [label="gini = 0.0000\nsamples = 7\nvalue = [ 0.  0.  0.  7.  0.]", shape="box"] ;
665 -> 673 ;
674 [label="gini = 0.0000\nsamples = 22\nvalue = [  0.   0.   0.  22.   0.]", shape="box"] ;
664 -> 674 ;
675 [label="Vendor Management <= 0.5000\ngini = 0.197530864198\nsamples = 9", shape="box"] ;
663 -> 675 ;
676 [label="gini = 0.0000\nsamples = 7\nvalue = [ 0.  0.  0.  7.  0.]", shape="box"] ;
675 -> 676 ;
677 [label="Project Management <= 0.5000\ngini = 0.5\nsamples = 2", shape="box"] ;
675 -> 677 ;
678 [label="gini = 0.0000\nsamples = 1\nvalue = [ 0.  1.  0.  0.  0.]", shape="box"] ;
677 -> 678 ;
679 [label="gini = 0.0000\nsamples = 1\nvalue = [ 0.  0.  0.  1.  0.]", shape="box"] ;
677 -> 679 ;
680 [label="gini = 0.0000\nsamples = 83\nvalue = [  0.   0.   0.  83.   0.]", shape="box"] ;
662 -> 680 ;
681 [label="Requirements Gathering <= 0.5000\ngini = 0.237240075614\nsamples = 46", shape="box"] ;
661 -> 681 ;
682 [label="Integration <= 0.5000\ngini = 0.413194444444\nsamples = 24", shape="box"] ;
681 -> 682 ;
683 [label="bc_1_computer science <= 0.5000\ngini = 0.493074792244\nsamples = 19", shape="box"] ;
682 -> 683 ;
684 [label="SDLC <= 0.5000\ngini = 0.450617283951\nsamples = 18", shape="box"] ;
683 -> 684 ;
685 [label="Project Management <= 0.5000\ngini = 0.515555555556\nsamples = 15", shape="box"] ;
684 -> 685 ;
686 [label="Data Mining <= 0.5000\ngini = 0.40625\nsamples = 8", shape="box"] ;
685 -> 686 ;
687 [label="C++ <= 0.5000\ngini = 0.5\nsamples = 6", shape="box"] ;
686 -> 687 ;
688 [label="gini = 0.5600\nsamples = 5\nvalue = [ 0.  0.  1.  3.  1.]", shape="box"] ;
687 -> 688 ;
689 [label="gini = 0.0000\nsamples = 1\nvalue = [ 0.  0.  0.  1.  0.]", shape="box"] ;
687 -> 689 ;
690 [label="gini = 0.0000\nsamples = 2\nvalue = [ 0.  0.  0.  2.  0.]", shape="box"] ;
686 -> 690 ;
691 [label="Data Mining <= 0.5000\ngini = 0.571428571429\nsamples = 7", shape="box"] ;
685 -> 691 ;
692 [label="SPSS <= 0.5000\ngini = 0.444444444444\nsamples = 6", shape="box"] ;
691 -> 692 ;
693 [label="SQL <= 0.5000\ngini = 0.48\nsamples = 5", shape="box"] ;
692 -> 693 ;
694 [label="gini = 0.5000\nsamples = 2\nvalue = [ 0.  1.  0.  1.  0.]", shape="box"] ;
693 -> 694 ;
695 [label="gini = 0.4444\nsamples = 3\nvalue = [ 0.  1.  0.  2.  0.]", shape="box"] ;
693 -> 695 ;
696 [label="gini = 0.0000\nsamples = 1\nvalue = [ 0.  0.  0.  1.  0.]", shape="box"] ;
692 -> 696 ;
697 [label="gini = 0.0000\nsamples = 1\nvalue = [ 0.  0.  1.  0.  0.]", shape="box"] ;
691 -> 697 ;
698 [label="gini = 0.0000\nsamples = 3\nvalue = [ 0.  0.  0.  3.  0.]", shape="box"] ;
684 -> 698 ;
699 [label="gini = 0.0000\nsamples = 1\nvalue = [ 0.  0.  1.  0.  0.]", shape="box"] ;
683 -> 699 ;
700 [label="gini = 0.0000\nsamples = 5\nvalue = [ 0.  0.  0.  5.  0.]", shape="box"] ;
682 -> 700 ;
701 [label="gini = 0.0000\nsamples = 22\nvalue = [  0.   0.   0.  22.   0.]", shape="box"] ;
681 -> 701 ;
702 [label="SDLC <= 0.5000\ngini = 0.5\nsamples = 2", shape="box"] ;
660 -> 702 ;
703 [label="gini = 0.0000\nsamples = 1\nvalue = [ 0.  1.  0.  0.  0.]", shape="box"] ;
702 -> 703 ;
704 [label="gini = 0.0000\nsamples = 1\nvalue = [ 0.  0.  0.  1.  0.]", shape="box"] ;
702 -> 704 ;
705 [label="gini = 0.0000\nsamples = 1\nvalue = [ 0.  1.  0.  0.  0.]", shape="box"] ;
659 -> 705 ;
706 [label="Requirements Analysis <= 0.5000\ngini = 0.5\nsamples = 2", shape="box"] ;
658 -> 706 ;
707 [label="gini = 0.0000\nsamples = 1\nvalue = [ 0.  0.  1.  0.  0.]", shape="box"] ;
706 -> 707 ;
708 [label="gini = 0.0000\nsamples = 1\nvalue = [ 0.  0.  0.  0.  1.]", shape="box"] ;
706 -> 708 ;
709 [label="Distributed Systems <= 0.5000\ngini = 0.625\nsamples = 4", shape="box"] ;
657 -> 709 ;
710 [label="Integration <= 0.5000\ngini = 0.444444444444\nsamples = 3", shape="box"] ;
709 -> 710 ;
711 [label="gini = 0.0000\nsamples = 1\nvalue = [ 0.  0.  0.  1.  0.]", shape="box"] ;
710 -> 711 ;
712 [label="gini = 0.0000\nsamples = 2\nvalue = [ 0.  0.  0.  0.  2.]", shape="box"] ;
710 -> 712 ;
713 [label="gini = 0.0000\nsamples = 1\nvalue = [ 0.  1.  0.  0.  0.]", shape="box"] ;
709 -> 713 ;
714 [label="Python <= 0.5000\ngini = 0.724852071006\nsamples = 26", shape="box"] ;
656 -> 714 ;
715 [label="Data Science <= 0.5000\ngini = 0.6328125\nsamples = 16", shape="box"] ;
714 -> 715 ;
716 [label="Java <= 0.5000\ngini = 0.520710059172\nsamples = 13", shape="box"] ;
715 -> 716 ;
717 [label="SPSS <= 0.5000\ngini = 0.444444444444\nsamples = 12", shape="box"] ;
716 -> 717 ;
718 [label="Statistical Modeling <= 0.5000\ngini = 0.345679012346\nsamples = 9", shape="box"] ;
717 -> 718 ;
719 [label="SDLC <= 0.5000\ngini = 0.48\nsamples = 5", shape="box"] ;
718 -> 719 ;
720 [label="SAS <= 0.5000\ngini = 0.444444444444\nsamples = 3", shape="box"] ;
719 -> 720 ;
721 [label="gini = 0.0000\nsamples = 1\nvalue = [ 0.  0.  0.  1.  0.]", shape="box"] ;
720 -> 721 ;
722 [label="gini = 0.5000\nsamples = 2\nvalue = [ 0.  0.  1.  1.  0.]", shape="box"] ;
720 -> 722 ;
723 [label="gini = 0.0000\nsamples = 2\nvalue = [ 0.  0.  2.  0.  0.]", shape="box"] ;
719 -> 723 ;
724 [label="gini = 0.0000\nsamples = 4\nvalue = [ 0.  0.  4.  0.  0.]", shape="box"] ;
718 -> 724 ;
725 [label="SQL <= 0.5000\ngini = 0.444444444444\nsamples = 3", shape="box"] ;
717 -> 725 ;
726 [label="gini = 0.0000\nsamples = 1\nvalue = [ 0.  0.  1.  0.  0.]", shape="box"] ;
725 -> 726 ;
727 [label="gini = 0.0000\nsamples = 2\nvalue = [ 0.  0.  0.  2.  0.]", shape="box"] ;
725 -> 727 ;
728 [label="gini = 0.0000\nsamples = 1\nvalue = [ 0.  0.  0.  0.  1.]", shape="box"] ;
716 -> 728 ;
729 [label="SQL <= 0.5000\ngini = 0.666666666667\nsamples = 3", shape="box"] ;
715 -> 729 ;
730 [label="gini = 0.0000\nsamples = 1\nvalue = [ 0.  0.  0.  1.  0.]", shape="box"] ;
729 -> 730 ;
731 [label="gini = 0.5000\nsamples = 2\nvalue = [ 0.  1.  0.  0.  1.]", shape="box"] ;
729 -> 731 ;
732 [label="R <= 0.5000\ngini = 0.58\nsamples = 10", shape="box"] ;
714 -> 732 ;
733 [label="gini = 0.0000\nsamples = 2\nvalue = [ 0.  0.  0.  2.  0.]", shape="box"] ;
732 -> 733 ;
734 [label="Project Management <= 0.5000\ngini = 0.53125\nsamples = 8", shape="box"] ;
732 -> 734 ;
735 [label="Matlab <= 0.5000\ngini = 0.448979591837\nsamples = 7", shape="box"] ;
734 -> 735 ;
736 [label="SQL <= 0.5000\ngini = 0.32\nsamples = 5", shape="box"] ;
735 -> 736 ;
737 [label="gini = 0.5000\nsamples = 2\nvalue = [ 1.  1.  0.  0.  0.]", shape="box"] ;
736 -> 737 ;
738 [label="gini = 0.0000\nsamples = 3\nvalue = [ 0.  3.  0.  0.  0.]", shape="box"] ;
736 -> 738 ;
739 [label="gini = 0.5000\nsamples = 2\nvalue = [ 0.  1.  0.  1.  0.]", shape="box"] ;
735 -> 739 ;
740 [label="gini = 0.0000\nsamples = 1\nvalue = [ 0.  0.  0.  1.  0.]", shape="box"] ;
734 -> 740 ;
}